digraph Tree {
node [shape=box, style="filled, rounded", color="black", fontname=helvetica] ;
edge [fontname=helvetica] ;
0 [label="X[0] <= 0.353\nmse = 0.006\nsamples = 1001\nvalue = 0.084", fillcolor="#f6d5bd"] ;
1 [label="X[0] <= -0.325\nmse = 0.004\nsamples = 854\nvalue = 0.066", fillcolor="#f8decb"] ;
0 -> 1 [labeldistance=2.5, labelangle=45, headlabel="True"] ;
2 [label="X[0] <= -0.419\nmse = 0.002\nsamples = 175\nvalue = 0.173", fillcolor="#eda876"] ;
1 -> 2 ;
3 [label="X[0] <= -0.462\nmse = 0.0\nsamples = 81\nvalue = 0.212", fillcolor="#e99457"] ;
2 -> 3 ;
4 [label="X[0] <= -0.481\nmse = 0.0\nsamples = 39\nvalue = 0.231", fillcolor="#e78a48"] ;
3 -> 4 ;
5 [label="X[0] <= -0.492\nmse = 0.0\nsamples = 19\nvalue = 0.241", fillcolor="#e68540"] ;
4 -> 5 ;
6 [label="X[0] <= -0.497\nmse = 0.0\nsamples = 9\nvalue = 0.246", fillcolor="#e5833c"] ;
5 -> 6 ;
7 [label="X[0] <= -0.499\nmse = 0.0\nsamples = 4\nvalue = 0.249", fillcolor="#e5823a"] ;
6 -> 7 ;
8 [label="X[0] <= -0.5\nmse = 0.0\nsamples = 2\nvalue = 0.25", fillcolor="#e58139"] ;
7 -> 8 ;
9 [label="mse = 0.0\nsamples = 1\nvalue = 0.25", fillcolor="#e58139"] ;
8 -> 9 ;
10 [label="mse = -0.0\nsamples = 1\nvalue = 0.249", fillcolor="#e5823a"] ;
8 -> 10 ;
11 [label="X[0] <= -0.498\nmse = 0.0\nsamples = 2\nvalue = 0.248", fillcolor="#e5823b"] ;
7 -> 11 ;
12 [label="mse = 0.0\nsamples = 1\nvalue = 0.248", fillcolor="#e5823b"] ;
11 -> 12 ;
13 [label="mse = -0.0\nsamples = 1\nvalue = 0.247", fillcolor="#e5833b"] ;
11 -> 13 ;
14 [label="X[0] <= -0.494\nmse = 0.0\nsamples = 5\nvalue = 0.244", fillcolor="#e6843e"] ;
6 -> 14 ;
15 [label="X[0] <= -0.495\nmse = 0.0\nsamples = 2\nvalue = 0.246", fillcolor="#e5833d"] ;
14 -> 15 ;
16 [label="mse = 0.0\nsamples = 1\nvalue = 0.246", fillcolor="#e5833c"] ;
15 -> 16 ;
17 [label="mse = 0.0\nsamples = 1\nvalue = 0.245", fillcolor="#e6843d"] ;
15 -> 17 ;
18 [label="X[0] <= -0.493\nmse = 0.0\nsamples = 3\nvalue = 0.243", fillcolor="#e6853f"] ;
14 -> 18 ;
19 [label="mse = 0.0\nsamples = 1\nvalue = 0.244", fillcolor="#e6843e"] ;
18 -> 19 ;
20 [label="X[0] <= -0.493\nmse = 0.0\nsamples = 2\nvalue = 0.243", fillcolor="#e6853f"] ;
18 -> 20 ;
21 [label="mse = 0.0\nsamples = 1\nvalue = 0.243", fillcolor="#e6853f"] ;
20 -> 21 ;
22 [label="mse = -0.0\nsamples = 1\nvalue = 0.242", fillcolor="#e6853f"] ;
20 -> 22 ;
23 [label="X[0] <= -0.486\nmse = 0.0\nsamples = 10\nvalue = 0.237", fillcolor="#e68844"] ;
5 -> 23 ;
24 [label="X[0] <= -0.49\nmse = 0.0\nsamples = 5\nvalue = 0.239", fillcolor="#e68642"] ;
23 -> 24 ;
25 [label="X[0] <= -0.491\nmse = 0.0\nsamples = 2\nvalue = 0.241", fillcolor="#e68640"] ;
24 -> 25 ;
26 [label="mse = 0.0\nsamples = 1\nvalue = 0.241", fillcolor="#e68640"] ;
25 -> 26 ;
27 [label="mse = 0.0\nsamples = 1\nvalue = 0.24", fillcolor="#e68641"] ;
25 -> 27 ;
28 [label="X[0] <= -0.488\nmse = 0.0\nsamples = 3\nvalue = 0.238", fillcolor="#e68742"] ;
24 -> 28 ;
29 [label="mse = 0.0\nsamples = 1\nvalue = 0.239", fillcolor="#e68642"] ;
28 -> 29 ;
30 [label="X[0] <= -0.487\nmse = 0.0\nsamples = 2\nvalue = 0.238", fillcolor="#e68743"] ;
28 -> 30 ;
31 [label="mse = 0.0\nsamples = 1\nvalue = 0.238", fillcolor="#e68742"] ;
30 -> 31 ;
32 [label="mse = 0.0\nsamples = 1\nvalue = 0.237", fillcolor="#e68743"] ;
30 -> 32 ;
33 [label="X[0] <= -0.485\nmse = 0.0\nsamples = 5\nvalue = 0.234", fillcolor="#e78945"] ;
23 -> 33 ;
34 [label="X[0] <= -0.486\nmse = 0.0\nsamples = 2\nvalue = 0.236", fillcolor="#e68844"] ;
33 -> 34 ;
35 [label="mse = 0.0\nsamples = 1\nvalue = 0.236", fillcolor="#e68844"] ;
34 -> 35 ;
36 [label="mse = -0.0\nsamples = 1\nvalue = 0.235", fillcolor="#e78845"] ;
34 -> 36 ;
37 [label="X[0] <= -0.484\nmse = 0.0\nsamples = 3\nvalue = 0.233", fillcolor="#e78946"] ;
33 -> 37 ;
38 [label="mse = 0.0\nsamples = 1\nvalue = 0.234", fillcolor="#e78945"] ;
37 -> 38 ;
39 [label="X[0] <= -0.483\nmse = 0.0\nsamples = 2\nvalue = 0.233", fillcolor="#e78a47"] ;
37 -> 39 ;
40 [label="mse = 0.0\nsamples = 1\nvalue = 0.233", fillcolor="#e78946"] ;
39 -> 40 ;
41 [label="mse = 0.0\nsamples = 1\nvalue = 0.232", fillcolor="#e78a47"] ;
39 -> 41 ;
42 [label="X[0] <= -0.471\nmse = 0.0\nsamples = 20\nvalue = 0.222", fillcolor="#e88f4f"] ;
4 -> 42 ;
43 [label="X[0] <= -0.477\nmse = 0.0\nsamples = 10\nvalue = 0.227", fillcolor="#e78d4b"] ;
42 -> 43 ;
44 [label="X[0] <= -0.479\nmse = 0.0\nsamples = 5\nvalue = 0.229", fillcolor="#e78b49"] ;
43 -> 44 ;
45 [label="X[0] <= -0.48\nmse = 0.0\nsamples = 2\nvalue = 0.231", fillcolor="#e78b48"] ;
44 -> 45 ;
46 [label="mse = 0.0\nsamples = 1\nvalue = 0.231", fillcolor="#e78a48"] ;
45 -> 46 ;
47 [label="mse = 0.0\nsamples = 1\nvalue = 0.23", fillcolor="#e78b49"] ;
45 -> 47 ;
48 [label="X[0] <= -0.478\nmse = 0.0\nsamples = 3\nvalue = 0.228", fillcolor="#e78c4a"] ;
44 -> 48 ;
49 [label="mse = 0.0\nsamples = 1\nvalue = 0.229", fillcolor="#e78b49"] ;
48 -> 49 ;
50 [label="X[0] <= -0.477\nmse = 0.0\nsamples = 2\nvalue = 0.228", fillcolor="#e78c4a"] ;
48 -> 50 ;
51 [label="mse = 0.0\nsamples = 1\nvalue = 0.228", fillcolor="#e78c4a"] ;
50 -> 51 ;
52 [label="mse = -0.0\nsamples = 1\nvalue = 0.228", fillcolor="#e78c4b"] ;
50 -> 52 ;
53 [label="X[0] <= -0.475\nmse = 0.0\nsamples = 5\nvalue = 0.225", fillcolor="#e88e4d"] ;
43 -> 53 ;
54 [label="X[0] <= -0.476\nmse = 0.0\nsamples = 2\nvalue = 0.226", fillcolor="#e78d4c"] ;
53 -> 54 ;
55 [label="mse = 0.0\nsamples = 1\nvalue = 0.227", fillcolor="#e78d4c"] ;
54 -> 55 ;
56 [label="mse = -0.0\nsamples = 1\nvalue = 0.226", fillcolor="#e88d4c"] ;
54 -> 56 ;
57 [label="X[0] <= -0.473\nmse = 0.0\nsamples = 3\nvalue = 0.224", fillcolor="#e88e4e"] ;
53 -> 57 ;
58 [label="mse = 0.0\nsamples = 1\nvalue = 0.225", fillcolor="#e88e4d"] ;
57 -> 58 ;
59 [label="X[0] <= -0.472\nmse = 0.0\nsamples = 2\nvalue = 0.223", fillcolor="#e88e4e"] ;
57 -> 59 ;
60 [label="mse = 0.0\nsamples = 1\nvalue = 0.224", fillcolor="#e88e4e"] ;
59 -> 60 ;
61 [label="mse = 0.0\nsamples = 1\nvalue = 0.223", fillcolor="#e88f4f"] ;
59 -> 61 ;
62 [label="X[0] <= -0.466\nmse = 0.0\nsamples = 10\nvalue = 0.218", fillcolor="#e89153"] ;
42 -> 62 ;
63 [label="X[0] <= -0.47\nmse = 0.0\nsamples = 5\nvalue = 0.22", fillcolor="#e89051"] ;
62 -> 63 ;
64 [label="X[0] <= -0.47\nmse = 0.0\nsamples = 2\nvalue = 0.221", fillcolor="#e88f50"] ;
63 -> 64 ;
65 [label="mse = 0.0\nsamples = 1\nvalue = 0.222", fillcolor="#e88f4f"] ;
64 -> 65 ;
66 [label="mse = 0.0\nsamples = 1\nvalue = 0.221", fillcolor="#e89050"] ;
64 -> 66 ;
67 [label="X[0] <= -0.469\nmse = 0.0\nsamples = 3\nvalue = 0.219", fillcolor="#e89152"] ;
63 -> 67 ;
68 [label="mse = 0.0\nsamples = 1\nvalue = 0.22", fillcolor="#e89051"] ;
67 -> 68 ;
69 [label="X[0] <= -0.468\nmse = 0.0\nsamples = 2\nvalue = 0.219", fillcolor="#e89152"] ;
67 -> 69 ;
70 [label="mse = 0.0\nsamples = 1\nvalue = 0.219", fillcolor="#e89152"] ;
69 -> 70 ;
71 [label="mse = -0.0\nsamples = 1\nvalue = 0.218", fillcolor="#e89152"] ;
69 -> 71 ;
72 [label="X[0] <= -0.464\nmse = 0.0\nsamples = 5\nvalue = 0.215", fillcolor="#e99355"] ;
62 -> 72 ;
73 [label="X[0] <= -0.465\nmse = 0.0\nsamples = 2\nvalue = 0.217", fillcolor="#e89253"] ;
72 -> 73 ;
74 [label="mse = 0.0\nsamples = 1\nvalue = 0.217", fillcolor="#e89253"] ;
73 -> 74 ;
75 [label="mse = 0.0\nsamples = 1\nvalue = 0.216", fillcolor="#e99254"] ;
73 -> 75 ;
76 [label="X[0] <= -0.463\nmse = 0.0\nsamples = 3\nvalue = 0.214", fillcolor="#e99355"] ;
72 -> 76 ;
77 [label="mse = 0.0\nsamples = 1\nvalue = 0.215", fillcolor="#e99355"] ;
76 -> 77 ;
78 [label="X[0] <= -0.463\nmse = 0.0\nsamples = 2\nvalue = 0.214", fillcolor="#e99356"] ;
76 -> 78 ;
79 [label="mse = 0.0\nsamples = 1\nvalue = 0.214", fillcolor="#e99355"] ;
78 -> 79 ;
80 [label="mse = -0.0\nsamples = 1\nvalue = 0.213", fillcolor="#e99356"] ;
78 -> 80 ;
81 [label="X[0] <= -0.441\nmse = 0.0\nsamples = 42\nvalue = 0.194", fillcolor="#eb9d65"] ;
3 -> 81 ;
82 [label="X[0] <= -0.451\nmse = 0.0\nsamples = 21\nvalue = 0.203", fillcolor="#ea985e"] ;
81 -> 82 ;
83 [label="X[0] <= -0.456\nmse = 0.0\nsamples = 10\nvalue = 0.208", fillcolor="#e9965a"] ;
82 -> 83 ;
84 [label="X[0] <= -0.459\nmse = 0.0\nsamples = 5\nvalue = 0.211", fillcolor="#e99558"] ;
83 -> 84 ;
85 [label="X[0] <= -0.461\nmse = 0.0\nsamples = 2\nvalue = 0.212", fillcolor="#e99457"] ;
84 -> 85 ;
86 [label="mse = 0.0\nsamples = 1\nvalue = 0.213", fillcolor="#e99457"] ;
85 -> 86 ;
87 [label="mse = 0.0\nsamples = 1\nvalue = 0.212", fillcolor="#e99457"] ;
85 -> 87 ;
88 [label="X[0] <= -0.458\nmse = 0.0\nsamples = 3\nvalue = 0.21", fillcolor="#e99559"] ;
84 -> 88 ;
89 [label="mse = 0.0\nsamples = 1\nvalue = 0.211", fillcolor="#e99558"] ;
88 -> 89 ;
90 [label="X[0] <= -0.457\nmse = 0.0\nsamples = 2\nvalue = 0.209", fillcolor="#e99659"] ;
88 -> 90 ;
91 [label="mse = 0.0\nsamples = 1\nvalue = 0.21", fillcolor="#e99559"] ;
90 -> 91 ;
92 [label="mse = 0.0\nsamples = 1\nvalue = 0.209", fillcolor="#e9965a"] ;
90 -> 92 ;
93 [label="X[0] <= -0.455\nmse = 0.0\nsamples = 5\nvalue = 0.206", fillcolor="#ea975c"] ;
83 -> 93 ;
94 [label="X[0] <= -0.456\nmse = 0.0\nsamples = 2\nvalue = 0.207", fillcolor="#e9965b"] ;
93 -> 94 ;
95 [label="mse = 0.0\nsamples = 1\nvalue = 0.208", fillcolor="#e9965a"] ;
94 -> 95 ;
96 [label="mse = 0.0\nsamples = 1\nvalue = 0.207", fillcolor="#e9975b"] ;
94 -> 96 ;
97 [label="X[0] <= -0.454\nmse = 0.0\nsamples = 3\nvalue = 0.205", fillcolor="#ea985d"] ;
93 -> 97 ;
98 [label="mse = 0.0\nsamples = 1\nvalue = 0.206", fillcolor="#ea975c"] ;
97 -> 98 ;
99 [label="X[0] <= -0.453\nmse = 0.0\nsamples = 2\nvalue = 0.205", fillcolor="#ea985d"] ;
97 -> 99 ;
100 [label="mse = 0.0\nsamples = 1\nvalue = 0.205", fillcolor="#ea985d"] ;
99 -> 100 ;
101 [label="mse = 0.0\nsamples = 1\nvalue = 0.204", fillcolor="#ea985d"] ;
99 -> 101 ;
102 [label="X[0] <= -0.447\nmse = 0.0\nsamples = 11\nvalue = 0.199", fillcolor="#ea9b62"] ;
82 -> 102 ;
103 [label="X[0] <= -0.449\nmse = 0.0\nsamples = 5\nvalue = 0.202", fillcolor="#ea995f"] ;
102 -> 103 ;
104 [label="X[0] <= -0.45\nmse = 0.0\nsamples = 2\nvalue = 0.203", fillcolor="#ea995e"] ;
103 -> 104 ;
105 [label="mse = 0.0\nsamples = 1\nvalue = 0.203", fillcolor="#ea995e"] ;
104 -> 105 ;
106 [label="mse = -0.0\nsamples = 1\nvalue = 0.202", fillcolor="#ea995f"] ;
104 -> 106 ;
107 [label="X[0] <= -0.449\nmse = 0.0\nsamples = 3\nvalue = 0.201", fillcolor="#ea9a60"] ;
103 -> 107 ;
108 [label="mse = 0.0\nsamples = 1\nvalue = 0.202", fillcolor="#ea995f"] ;
107 -> 108 ;
109 [label="X[0] <= -0.448\nmse = 0.0\nsamples = 2\nvalue = 0.2", fillcolor="#ea9a60"] ;
107 -> 109 ;
110 [label="mse = 0.0\nsamples = 1\nvalue = 0.201", fillcolor="#ea9a60"] ;
109 -> 110 ;
111 [label="mse = 0.0\nsamples = 1\nvalue = 0.2", fillcolor="#ea9a61"] ;
109 -> 111 ;
112 [label="X[0] <= -0.443\nmse = 0.0\nsamples = 6\nvalue = 0.197", fillcolor="#eb9c63"] ;
102 -> 112 ;
113 [label="X[0] <= -0.446\nmse = 0.0\nsamples = 3\nvalue = 0.198", fillcolor="#ea9b62"] ;
112 -> 113 ;
114 [label="mse = 0.0\nsamples = 1\nvalue = 0.199", fillcolor="#ea9b62"] ;
113 -> 114 ;
115 [label="X[0] <= -0.444\nmse = 0.0\nsamples = 2\nvalue = 0.198", fillcolor="#ea9b63"] ;
113 -> 115 ;
116 [label="mse = 0.0\nsamples = 1\nvalue = 0.198", fillcolor="#ea9b62"] ;
115 -> 116 ;
117 [label="mse = 0.0\nsamples = 1\nvalue = 0.197", fillcolor="#eb9c63"] ;
115 -> 117 ;
118 [label="X[0] <= -0.442\nmse = 0.0\nsamples = 3\nvalue = 0.195", fillcolor="#eb9d64"] ;
112 -> 118 ;
119 [label="mse = 0.0\nsamples = 1\nvalue = 0.196", fillcolor="#eb9c64"] ;
118 -> 119 ;
120 [label="X[0] <= -0.442\nmse = 0.0\nsamples = 2\nvalue = 0.195", fillcolor="#eb9d65"] ;
118 -> 120 ;
121 [label="mse = 0.0\nsamples = 1\nvalue = 0.195", fillcolor="#eb9d64"] ;
120 -> 121 ;
122 [label="mse = 0.0\nsamples = 1\nvalue = 0.194", fillcolor="#eb9d65"] ;
120 -> 122 ;
123 [label="X[0] <= -0.431\nmse = 0.0\nsamples = 21\nvalue = 0.185", fillcolor="#eca26d"] ;
81 -> 123 ;
124 [label="X[0] <= -0.435\nmse = 0.0\nsamples = 10\nvalue = 0.19", fillcolor="#eb9f69"] ;
123 -> 124 ;
125 [label="X[0] <= -0.439\nmse = 0.0\nsamples = 5\nvalue = 0.192", fillcolor="#eb9e67"] ;
124 -> 125 ;
126 [label="X[0] <= -0.44\nmse = 0.0\nsamples = 2\nvalue = 0.193", fillcolor="#eb9e66"] ;
125 -> 126 ;
127 [label="mse = 0.0\nsamples = 1\nvalue = 0.194", fillcolor="#eb9d66"] ;
126 -> 127 ;
128 [label="mse = 0.0\nsamples = 1\nvalue = 0.193", fillcolor="#eb9e66"] ;
126 -> 128 ;
129 [label="X[0] <= -0.438\nmse = 0.0\nsamples = 3\nvalue = 0.191", fillcolor="#eb9f68"] ;
125 -> 129 ;
130 [label="mse = 0.0\nsamples = 1\nvalue = 0.192", fillcolor="#eb9e67"] ;
129 -> 130 ;
131 [label="X[0] <= -0.436\nmse = 0.0\nsamples = 2\nvalue = 0.191", fillcolor="#eb9f68"] ;
129 -> 131 ;
132 [label="mse = 0.0\nsamples = 1\nvalue = 0.191", fillcolor="#eb9f68"] ;
131 -> 132 ;
133 [label="mse = 0.0\nsamples = 1\nvalue = 0.19", fillcolor="#eb9f69"] ;
131 -> 133 ;
134 [label="X[0] <= -0.433\nmse = 0.0\nsamples = 5\nvalue = 0.187", fillcolor="#eca16b"] ;
124 -> 134 ;
135 [label="X[0] <= -0.434\nmse = 0.0\nsamples = 2\nvalue = 0.189", fillcolor="#eba06a"] ;
134 -> 135 ;
136 [label="mse = 0.0\nsamples = 1\nvalue = 0.189", fillcolor="#eba069"] ;
135 -> 136 ;
137 [label="mse = -0.0\nsamples = 1\nvalue = 0.188", fillcolor="#eba06a"] ;
135 -> 137 ;
138 [label="X[0] <= -0.433\nmse = 0.0\nsamples = 3\nvalue = 0.187", fillcolor="#eca16b"] ;
134 -> 138 ;
139 [label="mse = 0.0\nsamples = 1\nvalue = 0.187", fillcolor="#eca16b"] ;
138 -> 139 ;
140 [label="X[0] <= -0.432\nmse = 0.0\nsamples = 2\nvalue = 0.186", fillcolor="#eca16c"] ;
138 -> 140 ;
141 [label="mse = 0.0\nsamples = 1\nvalue = 0.187", fillcolor="#eca16b"] ;
140 -> 141 ;
142 [label="mse = -0.0\nsamples = 1\nvalue = 0.186", fillcolor="#eca16c"] ;
140 -> 142 ;
143 [label="X[0] <= -0.426\nmse = 0.0\nsamples = 11\nvalue = 0.181", fillcolor="#eca470"] ;
123 -> 143 ;
144 [label="X[0] <= -0.428\nmse = 0.0\nsamples = 5\nvalue = 0.183", fillcolor="#eca36e"] ;
143 -> 144 ;
145 [label="X[0] <= -0.429\nmse = 0.0\nsamples = 2\nvalue = 0.184", fillcolor="#eca26d"] ;
144 -> 145 ;
146 [label="mse = 0.0\nsamples = 1\nvalue = 0.185", fillcolor="#eca26d"] ;
145 -> 146 ;
147 [label="mse = -0.0\nsamples = 1\nvalue = 0.184", fillcolor="#eca26d"] ;
145 -> 147 ;
148 [label="X[0] <= -0.427\nmse = 0.0\nsamples = 3\nvalue = 0.182", fillcolor="#eca36f"] ;
144 -> 148 ;
149 [label="mse = 0.0\nsamples = 1\nvalue = 0.183", fillcolor="#eca36e"] ;
148 -> 149 ;
150 [label="X[0] <= -0.426\nmse = 0.0\nsamples = 2\nvalue = 0.182", fillcolor="#eca36f"] ;
148 -> 150 ;
151 [label="mse = 0.0\nsamples = 1\nvalue = 0.182", fillcolor="#eca36f"] ;
150 -> 151 ;
152 [label="mse = 0.0\nsamples = 1\nvalue = 0.181", fillcolor="#eca46f"] ;
150 -> 152 ;
153 [label="X[0] <= -0.422\nmse = 0.0\nsamples = 6\nvalue = 0.179", fillcolor="#eca572"] ;
143 -> 153 ;
154 [label="X[0] <= -0.425\nmse = 0.0\nsamples = 3\nvalue = 0.18", fillcolor="#eca471"] ;
153 -> 154 ;
155 [label="mse = 0.0\nsamples = 1\nvalue = 0.181", fillcolor="#eca470"] ;
154 -> 155 ;
156 [label="X[0] <= -0.424\nmse = 0.0\nsamples = 2\nvalue = 0.179", fillcolor="#eca571"] ;
154 -> 156 ;
157 [label="mse = 0.0\nsamples = 1\nvalue = 0.18", fillcolor="#eca471"] ;
156 -> 157 ;
158 [label="mse = -0.0\nsamples = 1\nvalue = 0.179", fillcolor="#eca571"] ;
156 -> 158 ;
159 [label="X[0] <= -0.421\nmse = 0.0\nsamples = 3\nvalue = 0.177", fillcolor="#eda673"] ;
153 -> 159 ;
160 [label="mse = 0.0\nsamples = 1\nvalue = 0.178", fillcolor="#eca572"] ;
159 -> 160 ;
161 [label="X[0] <= -0.42\nmse = 0.0\nsamples = 2\nvalue = 0.177", fillcolor="#eda673"] ;
159 -> 161 ;
162 [label="mse = 0.0\nsamples = 1\nvalue = 0.177", fillcolor="#eda673"] ;
161 -> 162 ;
163 [label="mse = 0.0\nsamples = 1\nvalue = 0.176", fillcolor="#eda673"] ;
161 -> 163 ;
164 [label="X[0] <= -0.375\nmse = 0.0\nsamples = 94\nvalue = 0.139", fillcolor="#f1b991"] ;
2 -> 164 ;
165 [label="X[0] <= -0.398\nmse = 0.0\nsamples = 45\nvalue = 0.158", fillcolor="#efb082"] ;
164 -> 165 ;
166 [label="X[0] <= -0.409\nmse = 0.0\nsamples = 22\nvalue = 0.167", fillcolor="#eeab7b"] ;
165 -> 166 ;
167 [label="X[0] <= -0.414\nmse = 0.0\nsamples = 11\nvalue = 0.171", fillcolor="#eda977"] ;
166 -> 167 ;
168 [label="X[0] <= -0.418\nmse = 0.0\nsamples = 5\nvalue = 0.174", fillcolor="#eda775"] ;
167 -> 168 ;
169 [label="X[0] <= -0.419\nmse = 0.0\nsamples = 2\nvalue = 0.175", fillcolor="#eda774"] ;
168 -> 169 ;
170 [label="mse = 0.0\nsamples = 1\nvalue = 0.176", fillcolor="#eda774"] ;
169 -> 170 ;
171 [label="mse = 0.0\nsamples = 1\nvalue = 0.175", fillcolor="#eda775"] ;
169 -> 171 ;
172 [label="X[0] <= -0.417\nmse = 0.0\nsamples = 3\nvalue = 0.173", fillcolor="#eda876"] ;
168 -> 172 ;
173 [label="mse = 0.0\nsamples = 1\nvalue = 0.174", fillcolor="#eda775"] ;
172 -> 173 ;
174 [label="X[0] <= -0.416\nmse = 0.0\nsamples = 2\nvalue = 0.173", fillcolor="#eda876"] ;
172 -> 174 ;
175 [label="mse = 0.0\nsamples = 1\nvalue = 0.173", fillcolor="#eda876"] ;
174 -> 175 ;
176 [label="mse = 0.0\nsamples = 1\nvalue = 0.172", fillcolor="#eda877"] ;
174 -> 176 ;
177 [label="X[0] <= -0.412\nmse = 0.0\nsamples = 6\nvalue = 0.169", fillcolor="#edaa79"] ;
167 -> 177 ;
178 [label="X[0] <= -0.413\nmse = 0.0\nsamples = 3\nvalue = 0.171", fillcolor="#eda978"] ;
177 -> 178 ;
179 [label="mse = 0.0\nsamples = 1\nvalue = 0.171", fillcolor="#eda977"] ;
178 -> 179 ;
180 [label="X[0] <= -0.412\nmse = 0.0\nsamples = 2\nvalue = 0.17", fillcolor="#eda978"] ;
178 -> 180 ;
181 [label="mse = 0.0\nsamples = 1\nvalue = 0.171", fillcolor="#eda978"] ;
180 -> 181 ;
182 [label="mse = 0.0\nsamples = 1\nvalue = 0.17", fillcolor="#edaa79"] ;
180 -> 182 ;
183 [label="X[0] <= -0.411\nmse = 0.0\nsamples = 3\nvalue = 0.168", fillcolor="#eeaa7a"] ;
177 -> 183 ;
184 [label="mse = 0.0\nsamples = 1\nvalue = 0.169", fillcolor="#edaa79"] ;
183 -> 184 ;
185 [label="X[0] <= -0.41\nmse = 0.0\nsamples = 2\nvalue = 0.168", fillcolor="#eeab7a"] ;
183 -> 185 ;
186 [label="mse = 0.0\nsamples = 1\nvalue = 0.168", fillcolor="#eeaa7a"] ;
185 -> 186 ;
187 [label="mse = 0.0\nsamples = 1\nvalue = 0.167", fillcolor="#eeab7b"] ;
185 -> 187 ;
188 [label="X[0] <= -0.404\nmse = 0.0\nsamples = 11\nvalue = 0.162", fillcolor="#eead7e"] ;
166 -> 188 ;
189 [label="X[0] <= -0.406\nmse = 0.0\nsamples = 5\nvalue = 0.165", fillcolor="#eeac7d"] ;
188 -> 189 ;
190 [label="X[0] <= -0.407\nmse = 0.0\nsamples = 2\nvalue = 0.166", fillcolor="#eeab7c"] ;
189 -> 190 ;
191 [label="mse = 0.0\nsamples = 1\nvalue = 0.166", fillcolor="#eeab7b"] ;
190 -> 191 ;
192 [label="mse = 0.0\nsamples = 1\nvalue = 0.166", fillcolor="#eeac7c"] ;
190 -> 192 ;
193 [label="X[0] <= -0.405\nmse = 0.0\nsamples = 3\nvalue = 0.164", fillcolor="#eeac7d"] ;
189 -> 193 ;
194 [label="mse = 0.0\nsamples = 1\nvalue = 0.165", fillcolor="#eeac7d"] ;
193 -> 194 ;
195 [label="X[0] <= -0.405\nmse = 0.0\nsamples = 2\nvalue = 0.164", fillcolor="#eead7d"] ;
193 -> 195 ;
196 [label="mse = 0.0\nsamples = 1\nvalue = 0.164", fillcolor="#eeac7d"] ;
195 -> 196 ;
197 [label="mse = -0.0\nsamples = 1\nvalue = 0.163", fillcolor="#eead7e"] ;
195 -> 197 ;
198 [label="X[0] <= -0.4\nmse = 0.0\nsamples = 6\nvalue = 0.16", fillcolor="#eeae80"] ;
188 -> 198 ;
199 [label="X[0] <= -0.403\nmse = 0.0\nsamples = 3\nvalue = 0.162", fillcolor="#eeae7f"] ;
198 -> 199 ;
200 [label="mse = 0.0\nsamples = 1\nvalue = 0.162", fillcolor="#eead7e"] ;
199 -> 200 ;
201 [label="X[0] <= -0.402\nmse = 0.0\nsamples = 2\nvalue = 0.161", fillcolor="#eeae7f"] ;
199 -> 201 ;
202 [label="mse = 0.0\nsamples = 1\nvalue = 0.162", fillcolor="#eeae7f"] ;
201 -> 202 ;
203 [label="mse = 0.0\nsamples = 1\nvalue = 0.161", fillcolor="#eeae80"] ;
201 -> 203 ;
204 [label="X[0] <= -0.399\nmse = 0.0\nsamples = 3\nvalue = 0.159", fillcolor="#eeaf81"] ;
198 -> 204 ;
205 [label="mse = 0.0\nsamples = 1\nvalue = 0.16", fillcolor="#eeae80"] ;
204 -> 205 ;
206 [label="X[0] <= -0.398\nmse = 0.0\nsamples = 2\nvalue = 0.159", fillcolor="#eeaf81"] ;
204 -> 206 ;
207 [label="mse = 0.0\nsamples = 1\nvalue = 0.159", fillcolor="#eeaf81"] ;
206 -> 207 ;
208 [label="mse = 0.0\nsamples = 1\nvalue = 0.158", fillcolor="#efaf82"] ;
206 -> 208 ;
209 [label="X[0] <= -0.387\nmse = 0.0\nsamples = 23\nvalue = 0.149", fillcolor="#f0b489"] ;
165 -> 209 ;
210 [label="X[0] <= -0.392\nmse = 0.0\nsamples = 11\nvalue = 0.154", fillcolor="#efb285"] ;
209 -> 210 ;
211 [label="X[0] <= -0.396\nmse = 0.0\nsamples = 5\nvalue = 0.156", fillcolor="#efb084"] ;
210 -> 211 ;
212 [label="X[0] <= -0.397\nmse = 0.0\nsamples = 2\nvalue = 0.157", fillcolor="#efb083"] ;
211 -> 212 ;
213 [label="mse = 0.0\nsamples = 1\nvalue = 0.158", fillcolor="#efb082"] ;
212 -> 213 ;
214 [label="mse = 0.0\nsamples = 1\nvalue = 0.157", fillcolor="#efb083"] ;
212 -> 214 ;
215 [label="X[0] <= -0.395\nmse = 0.0\nsamples = 3\nvalue = 0.155", fillcolor="#efb184"] ;
211 -> 215 ;
216 [label="mse = 0.0\nsamples = 1\nvalue = 0.156", fillcolor="#efb084"] ;
215 -> 216 ;
217 [label="X[0] <= -0.394\nmse = 0.0\nsamples = 2\nvalue = 0.155", fillcolor="#efb184"] ;
215 -> 217 ;
218 [label="mse = 0.0\nsamples = 1\nvalue = 0.155", fillcolor="#efb184"] ;
217 -> 218 ;
219 [label="mse = -0.0\nsamples = 1\nvalue = 0.154", fillcolor="#efb185"] ;
217 -> 219 ;
220 [label="X[0] <= -0.389\nmse = 0.0\nsamples = 6\nvalue = 0.152", fillcolor="#efb387"] ;
210 -> 220 ;
221 [label="X[0] <= -0.391\nmse = 0.0\nsamples = 3\nvalue = 0.153", fillcolor="#efb286"] ;
220 -> 221 ;
222 [label="mse = 0.0\nsamples = 1\nvalue = 0.154", fillcolor="#efb285"] ;
221 -> 222 ;
223 [label="X[0] <= -0.39\nmse = 0.0\nsamples = 2\nvalue = 0.152", fillcolor="#efb286"] ;
221 -> 223 ;
224 [label="mse = 0.0\nsamples = 1\nvalue = 0.153", fillcolor="#efb286"] ;
223 -> 224 ;
225 [label="mse = 0.0\nsamples = 1\nvalue = 0.152", fillcolor="#efb287"] ;
223 -> 225 ;
226 [label="X[0] <= -0.389\nmse = 0.0\nsamples = 3\nvalue = 0.151", fillcolor="#efb388"] ;
220 -> 226 ;
227 [label="mse = 0.0\nsamples = 1\nvalue = 0.151", fillcolor="#efb387"] ;
226 -> 227 ;
228 [label="X[0] <= -0.388\nmse = 0.0\nsamples = 2\nvalue = 0.15", fillcolor="#efb388"] ;
226 -> 228 ;
229 [label="mse = 0.0\nsamples = 1\nvalue = 0.151", fillcolor="#efb388"] ;
228 -> 229 ;
230 [label="mse = 0.0\nsamples = 1\nvalue = 0.15", fillcolor="#efb488"] ;
228 -> 230 ;
231 [label="X[0] <= -0.381\nmse = 0.0\nsamples = 12\nvalue = 0.145", fillcolor="#f0b68c"] ;
209 -> 231 ;
232 [label="X[0] <= -0.383\nmse = 0.0\nsamples = 6\nvalue = 0.147", fillcolor="#f0b58b"] ;
231 -> 232 ;
233 [label="X[0] <= -0.385\nmse = 0.0\nsamples = 3\nvalue = 0.148", fillcolor="#f0b48a"] ;
232 -> 233 ;
234 [label="mse = 0.0\nsamples = 1\nvalue = 0.149", fillcolor="#f0b489"] ;
233 -> 234 ;
235 [label="X[0] <= -0.384\nmse = 0.0\nsamples = 2\nvalue = 0.148", fillcolor="#f0b58a"] ;
233 -> 235 ;
236 [label="mse = 0.0\nsamples = 1\nvalue = 0.148", fillcolor="#f0b48a"] ;
235 -> 236 ;
237 [label="mse = -0.0\nsamples = 1\nvalue = 0.147", fillcolor="#f0b58a"] ;
235 -> 237 ;
238 [label="X[0] <= -0.382\nmse = 0.0\nsamples = 3\nvalue = 0.146", fillcolor="#f0b68c"] ;
232 -> 238 ;
239 [label="mse = 0.0\nsamples = 1\nvalue = 0.147", fillcolor="#f0b58b"] ;
238 -> 239 ;
240 [label="X[0] <= -0.382\nmse = 0.0\nsamples = 2\nvalue = 0.146", fillcolor="#f0b68c"] ;
238 -> 240 ;
241 [label="mse = 0.0\nsamples = 1\nvalue = 0.146", fillcolor="#f0b68c"] ;
240 -> 241 ;
242 [label="mse = 0.0\nsamples = 1\nvalue = 0.145", fillcolor="#f0b68c"] ;
240 -> 242 ;
243 [label="X[0] <= -0.377\nmse = 0.0\nsamples = 6\nvalue = 0.143", fillcolor="#f0b78e"] ;
231 -> 243 ;
244 [label="X[0] <= -0.38\nmse = 0.0\nsamples = 3\nvalue = 0.144", fillcolor="#f0b78d"] ;
243 -> 244 ;
245 [label="mse = 0.0\nsamples = 1\nvalue = 0.144", fillcolor="#f0b68d"] ;
244 -> 245 ;
246 [label="X[0] <= -0.378\nmse = 0.0\nsamples = 2\nvalue = 0.143", fillcolor="#f0b78e"] ;
244 -> 246 ;
247 [label="mse = 0.0\nsamples = 1\nvalue = 0.144", fillcolor="#f0b78d"] ;
246 -> 247 ;
248 [label="mse = 0.0\nsamples = 1\nvalue = 0.143", fillcolor="#f0b78e"] ;
246 -> 248 ;
249 [label="X[0] <= -0.376\nmse = 0.0\nsamples = 3\nvalue = 0.141", fillcolor="#f0b88f"] ;
243 -> 249 ;
250 [label="mse = 0.0\nsamples = 1\nvalue = 0.142", fillcolor="#f0b78f"] ;
249 -> 250 ;
251 [label="X[0] <= -0.375\nmse = 0.0\nsamples = 2\nvalue = 0.141", fillcolor="#f0b88f"] ;
249 -> 251 ;
252 [label="mse = 0.0\nsamples = 1\nvalue = 0.141", fillcolor="#f0b88f"] ;
251 -> 252 ;
253 [label="mse = -0.0\nsamples = 1\nvalue = 0.141", fillcolor="#f0b890"] ;
251 -> 253 ;
254 [label="X[0] <= -0.351\nmse = 0.0\nsamples = 49\nvalue = 0.123", fillcolor="#f2c19e"] ;
164 -> 254 ;
255 [label="X[0] <= -0.362\nmse = 0.0\nsamples = 24\nvalue = 0.131", fillcolor="#f1bd97"] ;
254 -> 255 ;
256 [label="X[0] <= -0.368\nmse = 0.0\nsamples = 12\nvalue = 0.136", fillcolor="#f1bb94"] ;
255 -> 256 ;
257 [label="X[0] <= -0.372\nmse = 0.0\nsamples = 6\nvalue = 0.138", fillcolor="#f1ba92"] ;
256 -> 257 ;
258 [label="X[0] <= -0.374\nmse = 0.0\nsamples = 3\nvalue = 0.139", fillcolor="#f1b991"] ;
257 -> 258 ;
259 [label="mse = 0.0\nsamples = 1\nvalue = 0.14", fillcolor="#f0b990"] ;
258 -> 259 ;
260 [label="X[0] <= -0.373\nmse = 0.0\nsamples = 2\nvalue = 0.139", fillcolor="#f1b991"] ;
258 -> 260 ;
261 [label="mse = 0.0\nsamples = 1\nvalue = 0.139", fillcolor="#f1b991"] ;
260 -> 261 ;
262 [label="mse = 0.0\nsamples = 1\nvalue = 0.138", fillcolor="#f1b992"] ;
260 -> 262 ;
263 [label="X[0] <= -0.37\nmse = 0.0\nsamples = 3\nvalue = 0.137", fillcolor="#f1ba93"] ;
257 -> 263 ;
264 [label="mse = 0.0\nsamples = 1\nvalue = 0.138", fillcolor="#f1ba92"] ;
263 -> 264 ;
265 [label="X[0] <= -0.369\nmse = 0.0\nsamples = 2\nvalue = 0.137", fillcolor="#f1ba93"] ;
263 -> 265 ;
266 [label="mse = 0.0\nsamples = 1\nvalue = 0.137", fillcolor="#f1ba93"] ;
265 -> 266 ;
267 [label="mse = -0.0\nsamples = 1\nvalue = 0.136", fillcolor="#f1ba93"] ;
265 -> 267 ;
268 [label="X[0] <= -0.366\nmse = 0.0\nsamples = 6\nvalue = 0.134", fillcolor="#f1bc95"] ;
256 -> 268 ;
269 [label="X[0] <= -0.368\nmse = 0.0\nsamples = 3\nvalue = 0.135", fillcolor="#f1bb94"] ;
268 -> 269 ;
270 [label="mse = 0.0\nsamples = 1\nvalue = 0.135", fillcolor="#f1bb94"] ;
269 -> 270 ;
271 [label="X[0] <= -0.367\nmse = 0.0\nsamples = 2\nvalue = 0.134", fillcolor="#f1bb95"] ;
269 -> 271 ;
272 [label="mse = 0.0\nsamples = 1\nvalue = 0.135", fillcolor="#f1bb94"] ;
271 -> 272 ;
273 [label="mse = 0.0\nsamples = 1\nvalue = 0.134", fillcolor="#f1bc95"] ;
271 -> 273 ;
274 [label="X[0] <= -0.365\nmse = 0.0\nsamples = 3\nvalue = 0.132", fillcolor="#f1bc96"] ;
268 -> 274 ;
275 [label="mse = 0.0\nsamples = 1\nvalue = 0.133", fillcolor="#f1bc96"] ;
274 -> 275 ;
276 [label="X[0] <= -0.363\nmse = 0.0\nsamples = 2\nvalue = 0.132", fillcolor="#f1bc96"] ;
274 -> 276 ;
277 [label="mse = 0.0\nsamples = 1\nvalue = 0.132", fillcolor="#f1bc96"] ;
276 -> 277 ;
278 [label="mse = -0.0\nsamples = 1\nvalue = 0.132", fillcolor="#f1bd97"] ;
276 -> 278 ;
279 [label="X[0] <= -0.356\nmse = 0.0\nsamples = 12\nvalue = 0.127", fillcolor="#f2bf9a"] ;
255 -> 279 ;
280 [label="X[0] <= -0.36\nmse = 0.0\nsamples = 6\nvalue = 0.129", fillcolor="#f2be99"] ;
279 -> 280 ;
281 [label="X[0] <= -0.361\nmse = 0.0\nsamples = 3\nvalue = 0.13", fillcolor="#f1bd98"] ;
280 -> 281 ;
282 [label="mse = 0.0\nsamples = 1\nvalue = 0.131", fillcolor="#f1bd97"] ;
281 -> 282 ;
283 [label="X[0] <= -0.361\nmse = 0.0\nsamples = 2\nvalue = 0.13", fillcolor="#f2be98"] ;
281 -> 283 ;
284 [label="mse = 0.0\nsamples = 1\nvalue = 0.13", fillcolor="#f1bd98"] ;
283 -> 284 ;
285 [label="mse = -0.0\nsamples = 1\nvalue = 0.13", fillcolor="#f2be98"] ;
283 -> 285 ;
286 [label="X[0] <= -0.359\nmse = 0.0\nsamples = 3\nvalue = 0.128", fillcolor="#f2be9a"] ;
280 -> 286 ;
287 [label="mse = 0.0\nsamples = 1\nvalue = 0.129", fillcolor="#f2be99"] ;
286 -> 287 ;
288 [label="X[0] <= -0.358\nmse = 0.0\nsamples = 2\nvalue = 0.128", fillcolor="#f2bf9a"] ;
286 -> 288 ;
289 [label="mse = 0.0\nsamples = 1\nvalue = 0.128", fillcolor="#f2be9a"] ;
288 -> 289 ;
290 [label="mse = 0.0\nsamples = 1\nvalue = 0.127", fillcolor="#f2bf9a"] ;
288 -> 290 ;
291 [label="X[0] <= -0.353\nmse = 0.0\nsamples = 6\nvalue = 0.125", fillcolor="#f2c09c"] ;
279 -> 291 ;
292 [label="X[0] <= -0.355\nmse = 0.0\nsamples = 3\nvalue = 0.126", fillcolor="#f2c09b"] ;
291 -> 292 ;
293 [label="mse = 0.0\nsamples = 1\nvalue = 0.127", fillcolor="#f2bf9b"] ;
292 -> 293 ;
294 [label="X[0] <= -0.354\nmse = 0.0\nsamples = 2\nvalue = 0.126", fillcolor="#f2c09c"] ;
292 -> 294 ;
295 [label="mse = 0.0\nsamples = 1\nvalue = 0.126", fillcolor="#f2c09b"] ;
294 -> 295 ;
296 [label="mse = -0.0\nsamples = 1\nvalue = 0.125", fillcolor="#f2c09c"] ;
294 -> 296 ;
297 [label="X[0] <= -0.352\nmse = 0.0\nsamples = 3\nvalue = 0.124", fillcolor="#f2c19d"] ;
291 -> 297 ;
298 [label="mse = 0.0\nsamples = 1\nvalue = 0.125", fillcolor="#f2c09c"] ;
297 -> 298 ;
299 [label="X[0] <= -0.352\nmse = 0.0\nsamples = 2\nvalue = 0.124", fillcolor="#f2c19d"] ;
297 -> 299 ;
300 [label="mse = 0.0\nsamples = 1\nvalue = 0.124", fillcolor="#f2c19d"] ;
299 -> 300 ;
301 [label="mse = 0.0\nsamples = 1\nvalue = 0.123", fillcolor="#f2c19e"] ;
299 -> 301 ;
302 [label="X[0] <= -0.338\nmse = 0.0\nsamples = 25\nvalue = 0.114", fillcolor="#f3c5a5"] ;
254 -> 302 ;
303 [label="X[0] <= -0.345\nmse = 0.0\nsamples = 12\nvalue = 0.119", fillcolor="#f3c3a1"] ;
302 -> 303 ;
304 [label="X[0] <= -0.347\nmse = 0.0\nsamples = 6\nvalue = 0.121", fillcolor="#f2c29f"] ;
303 -> 304 ;
305 [label="X[0] <= -0.35\nmse = 0.0\nsamples = 3\nvalue = 0.122", fillcolor="#f2c29f"] ;
304 -> 305 ;
306 [label="mse = 0.0\nsamples = 1\nvalue = 0.122", fillcolor="#f2c19e"] ;
305 -> 306 ;
307 [label="X[0] <= -0.348\nmse = 0.0\nsamples = 2\nvalue = 0.121", fillcolor="#f2c29f"] ;
305 -> 307 ;
308 [label="mse = 0.0\nsamples = 1\nvalue = 0.122", fillcolor="#f2c29f"] ;
307 -> 308 ;
309 [label="mse = -0.0\nsamples = 1\nvalue = 0.121", fillcolor="#f2c29f"] ;
307 -> 309 ;
310 [label="X[0] <= -0.346\nmse = 0.0\nsamples = 3\nvalue = 0.12", fillcolor="#f3c3a0"] ;
304 -> 310 ;
311 [label="mse = 0.0\nsamples = 1\nvalue = 0.12", fillcolor="#f2c2a0"] ;
310 -> 311 ;
312 [label="X[0] <= -0.345\nmse = 0.0\nsamples = 2\nvalue = 0.119", fillcolor="#f3c3a1"] ;
310 -> 312 ;
313 [label="mse = 0.0\nsamples = 1\nvalue = 0.12", fillcolor="#f3c3a0"] ;
312 -> 313 ;
314 [label="mse = -0.0\nsamples = 1\nvalue = 0.119", fillcolor="#f3c3a1"] ;
312 -> 314 ;
315 [label="X[0] <= -0.341\nmse = 0.0\nsamples = 6\nvalue = 0.117", fillcolor="#f3c4a3"] ;
303 -> 315 ;
316 [label="X[0] <= -0.344\nmse = 0.0\nsamples = 3\nvalue = 0.118", fillcolor="#f3c4a2"] ;
315 -> 316 ;
317 [label="mse = 0.0\nsamples = 1\nvalue = 0.118", fillcolor="#f3c3a1"] ;
316 -> 317 ;
318 [label="X[0] <= -0.343\nmse = 0.0\nsamples = 2\nvalue = 0.117", fillcolor="#f3c4a2"] ;
316 -> 318 ;
319 [label="mse = 0.0\nsamples = 1\nvalue = 0.118", fillcolor="#f3c4a2"] ;
318 -> 319 ;
320 [label="mse = 0.0\nsamples = 1\nvalue = 0.117", fillcolor="#f3c4a2"] ;
318 -> 320 ;
321 [label="X[0] <= -0.34\nmse = 0.0\nsamples = 3\nvalue = 0.116", fillcolor="#f3c5a4"] ;
315 -> 321 ;
322 [label="mse = 0.0\nsamples = 1\nvalue = 0.116", fillcolor="#f3c4a3"] ;
321 -> 322 ;
323 [label="X[0] <= -0.339\nmse = 0.0\nsamples = 2\nvalue = 0.115", fillcolor="#f3c5a4"] ;
321 -> 323 ;
324 [label="mse = 0.0\nsamples = 1\nvalue = 0.116", fillcolor="#f3c5a4"] ;
323 -> 324 ;
325 [label="mse = -0.0\nsamples = 1\nvalue = 0.115", fillcolor="#f3c5a4"] ;
323 -> 325 ;
326 [label="X[0] <= -0.332\nmse = 0.0\nsamples = 13\nvalue = 0.11", fillcolor="#f4c8a8"] ;
302 -> 326 ;
327 [label="X[0] <= -0.336\nmse = 0.0\nsamples = 6\nvalue = 0.113", fillcolor="#f3c6a6"] ;
326 -> 327 ;
328 [label="X[0] <= -0.338\nmse = 0.0\nsamples = 3\nvalue = 0.114", fillcolor="#f3c6a5"] ;
327 -> 328 ;
329 [label="mse = 0.0\nsamples = 1\nvalue = 0.114", fillcolor="#f3c6a5"] ;
328 -> 329 ;
330 [label="X[0] <= -0.337\nmse = 0.0\nsamples = 2\nvalue = 0.113", fillcolor="#f3c6a5"] ;
328 -> 330 ;
331 [label="mse = 0.0\nsamples = 1\nvalue = 0.114", fillcolor="#f3c6a5"] ;
330 -> 331 ;
332 [label="mse = 0.0\nsamples = 1\nvalue = 0.113", fillcolor="#f3c6a6"] ;
330 -> 332 ;
333 [label="X[0] <= -0.334\nmse = 0.0\nsamples = 3\nvalue = 0.112", fillcolor="#f3c7a7"] ;
327 -> 333 ;
334 [label="mse = 0.0\nsamples = 1\nvalue = 0.112", fillcolor="#f3c7a6"] ;
333 -> 334 ;
335 [label="X[0] <= -0.333\nmse = 0.0\nsamples = 2\nvalue = 0.111", fillcolor="#f3c7a7"] ;
333 -> 335 ;
336 [label="mse = 0.0\nsamples = 1\nvalue = 0.112", fillcolor="#f3c7a7"] ;
335 -> 336 ;
337 [label="mse = 0.0\nsamples = 1\nvalue = 0.111", fillcolor="#f3c7a7"] ;
335 -> 337 ;
338 [label="X[0] <= -0.33\nmse = 0.0\nsamples = 7\nvalue = 0.108", fillcolor="#f4c9a9"] ;
326 -> 338 ;
339 [label="X[0] <= -0.331\nmse = 0.0\nsamples = 3\nvalue = 0.11", fillcolor="#f4c8a8"] ;
338 -> 339 ;
340 [label="mse = 0.0\nsamples = 1\nvalue = 0.11", fillcolor="#f4c8a8"] ;
339 -> 340 ;
341 [label="X[0] <= -0.331\nmse = 0.0\nsamples = 2\nvalue = 0.109", fillcolor="#f4c8a9"] ;
339 -> 341 ;
342 [label="mse = 0.0\nsamples = 1\nvalue = 0.11", fillcolor="#f4c8a8"] ;
341 -> 342 ;
343 [label="mse = -0.0\nsamples = 1\nvalue = 0.109", fillcolor="#f4c8a9"] ;
341 -> 343 ;
344 [label="X[0] <= -0.328\nmse = 0.0\nsamples = 4\nvalue = 0.107", fillcolor="#f4c9aa"] ;
338 -> 344 ;
345 [label="X[0] <= -0.329\nmse = 0.0\nsamples = 2\nvalue = 0.108", fillcolor="#f4c9aa"] ;
344 -> 345 ;
346 [label="mse = 0.0\nsamples = 1\nvalue = 0.108", fillcolor="#f4c9a9"] ;
345 -> 346 ;
347 [label="mse = 0.0\nsamples = 1\nvalue = 0.108", fillcolor="#f4c9aa"] ;
345 -> 347 ;
348 [label="X[0] <= -0.326\nmse = 0.0\nsamples = 2\nvalue = 0.107", fillcolor="#f4c9ab"] ;
344 -> 348 ;
349 [label="mse = 0.0\nsamples = 1\nvalue = 0.107", fillcolor="#f4c9aa"] ;
348 -> 349 ;
350 [label="mse = -0.0\nsamples = 1\nvalue = 0.106", fillcolor="#f4caab"] ;
348 -> 350 ;
351 [label="X[0] <= 0.244\nmse = 0.001\nsamples = 679\nvalue = 0.039", fillcolor="#fbece1"] ;
1 -> 351 ;
352 [label="X[0] <= -0.214\nmse = 0.001\nsamples = 569\nvalue = 0.029", fillcolor="#fcf1e9"] ;
351 -> 352 ;
353 [label="X[0] <= -0.273\nmse = 0.0\nsamples = 112\nvalue = 0.074", fillcolor="#f7dac5"] ;
352 -> 353 ;
354 [label="X[0] <= -0.301\nmse = 0.0\nsamples = 52\nvalue = 0.09", fillcolor="#f6d2b8"] ;
353 -> 354 ;
355 [label="X[0] <= -0.314\nmse = 0.0\nsamples = 25\nvalue = 0.098", fillcolor="#f5ceb2"] ;
354 -> 355 ;
356 [label="X[0] <= -0.319\nmse = 0.0\nsamples = 12\nvalue = 0.102", fillcolor="#f4ccae"] ;
355 -> 356 ;
357 [label="X[0] <= -0.323\nmse = 0.0\nsamples = 6\nvalue = 0.104", fillcolor="#f4cbad"] ;
356 -> 357 ;
358 [label="X[0] <= -0.324\nmse = 0.0\nsamples = 3\nvalue = 0.105", fillcolor="#f4caac"] ;
357 -> 358 ;
359 [label="mse = 0.0\nsamples = 1\nvalue = 0.106", fillcolor="#f4caab"] ;
358 -> 359 ;
360 [label="X[0] <= -0.324\nmse = 0.0\nsamples = 2\nvalue = 0.105", fillcolor="#f4caac"] ;
358 -> 360 ;
361 [label="mse = 0.0\nsamples = 1\nvalue = 0.105", fillcolor="#f4caac"] ;
360 -> 361 ;
362 [label="mse = 0.0\nsamples = 1\nvalue = 0.104", fillcolor="#f4cbad"] ;
360 -> 362 ;
363 [label="X[0] <= -0.322\nmse = 0.0\nsamples = 3\nvalue = 0.103", fillcolor="#f4cbae"] ;
357 -> 363 ;
364 [label="mse = 0.0\nsamples = 1\nvalue = 0.104", fillcolor="#f4cbad"] ;
363 -> 364 ;
365 [label="X[0] <= -0.321\nmse = 0.0\nsamples = 2\nvalue = 0.103", fillcolor="#f4cbae"] ;
363 -> 365 ;
366 [label="mse = 0.0\nsamples = 1\nvalue = 0.103", fillcolor="#f4cbae"] ;
365 -> 366 ;
367 [label="mse = 0.0\nsamples = 1\nvalue = 0.102", fillcolor="#f4cbae"] ;
365 -> 367 ;
368 [label="X[0] <= -0.317\nmse = 0.0\nsamples = 6\nvalue = 0.1", fillcolor="#f5cdb0"] ;
356 -> 368 ;
369 [label="X[0] <= -0.318\nmse = 0.0\nsamples = 3\nvalue = 0.101", fillcolor="#f5ccaf"] ;
368 -> 369 ;
370 [label="mse = 0.0\nsamples = 1\nvalue = 0.102", fillcolor="#f4ccaf"] ;
369 -> 370 ;
371 [label="X[0] <= -0.317\nmse = 0.0\nsamples = 2\nvalue = 0.101", fillcolor="#f5ccaf"] ;
369 -> 371 ;
372 [label="mse = 0.0\nsamples = 1\nvalue = 0.101", fillcolor="#f5ccaf"] ;
371 -> 372 ;
373 [label="mse = 0.0\nsamples = 1\nvalue = 0.1", fillcolor="#f5ccb0"] ;
371 -> 373 ;
374 [label="X[0] <= -0.316\nmse = 0.0\nsamples = 3\nvalue = 0.099", fillcolor="#f5cdb1"] ;
368 -> 374 ;
375 [label="mse = 0.0\nsamples = 1\nvalue = 0.1", fillcolor="#f5cdb0"] ;
374 -> 375 ;
376 [label="mse = 0.0\nsamples = 2\nvalue = 0.099", fillcolor="#f5cdb1"] ;
374 -> 376 ;
377 [label="X[0] <= -0.308\nmse = 0.0\nsamples = 13\nvalue = 0.094", fillcolor="#f5d0b5"] ;
355 -> 377 ;
378 [label="X[0] <= -0.31\nmse = 0.0\nsamples = 6\nvalue = 0.096", fillcolor="#f5cfb3"] ;
377 -> 378 ;
379 [label="X[0] <= -0.312\nmse = 0.0\nsamples = 3\nvalue = 0.097", fillcolor="#f5ceb2"] ;
378 -> 379 ;
380 [label="mse = 0.0\nsamples = 1\nvalue = 0.098", fillcolor="#f5ceb2"] ;
379 -> 380 ;
381 [label="mse = 0.0\nsamples = 2\nvalue = 0.097", fillcolor="#f5ceb2"] ;
379 -> 381 ;
382 [label="X[0] <= -0.309\nmse = 0.0\nsamples = 3\nvalue = 0.095", fillcolor="#f5cfb4"] ;
378 -> 382 ;
383 [label="mse = 0.0\nsamples = 1\nvalue = 0.096", fillcolor="#f5cfb3"] ;
382 -> 383 ;
384 [label="mse = 0.0\nsamples = 2\nvalue = 0.095", fillcolor="#f5cfb4"] ;
382 -> 384 ;
385 [label="X[0] <= -0.304\nmse = 0.0\nsamples = 7\nvalue = 0.092", fillcolor="#f5d1b6"] ;
377 -> 385 ;
386 [label="X[0] <= -0.307\nmse = 0.0\nsamples = 3\nvalue = 0.094", fillcolor="#f5d0b5"] ;
385 -> 386 ;
387 [label="mse = 0.0\nsamples = 1\nvalue = 0.094", fillcolor="#f5d0b5"] ;
386 -> 387 ;
388 [label="mse = 0.0\nsamples = 2\nvalue = 0.093", fillcolor="#f5d0b5"] ;
386 -> 388 ;
389 [label="X[0] <= -0.302\nmse = 0.0\nsamples = 4\nvalue = 0.092", fillcolor="#f6d1b7"] ;
385 -> 389 ;
390 [label="mse = 0.0\nsamples = 2\nvalue = 0.092", fillcolor="#f5d1b6"] ;
389 -> 390 ;
391 [label="mse = 0.0\nsamples = 2\nvalue = 0.091", fillcolor="#f6d1b7"] ;
389 -> 391 ;
392 [label="X[0] <= -0.287\nmse = 0.0\nsamples = 27\nvalue = 0.082", fillcolor="#f6d6be"] ;
354 -> 392 ;
393 [label="X[0] <= -0.294\nmse = 0.0\nsamples = 13\nvalue = 0.086", fillcolor="#f6d4bb"] ;
392 -> 393 ;
394 [label="X[0] <= -0.297\nmse = 0.0\nsamples = 6\nvalue = 0.089", fillcolor="#f6d2b9"] ;
393 -> 394 ;
395 [label="X[0] <= -0.3\nmse = 0.0\nsamples = 3\nvalue = 0.089", fillcolor="#f6d2b8"] ;
394 -> 395 ;
396 [label="mse = 0.0\nsamples = 1\nvalue = 0.09", fillcolor="#f6d2b8"] ;
395 -> 396 ;
397 [label="mse = 0.0\nsamples = 2\nvalue = 0.089", fillcolor="#f6d2b9"] ;
395 -> 397 ;
398 [label="X[0] <= -0.296\nmse = 0.0\nsamples = 3\nvalue = 0.088", fillcolor="#f6d3ba"] ;
394 -> 398 ;
399 [label="mse = 0.0\nsamples = 1\nvalue = 0.088", fillcolor="#f6d3b9"] ;
398 -> 399 ;
400 [label="mse = 0.0\nsamples = 2\nvalue = 0.087", fillcolor="#f6d3ba"] ;
398 -> 400 ;
401 [label="X[0] <= -0.292\nmse = 0.0\nsamples = 7\nvalue = 0.085", fillcolor="#f6d4bc"] ;
393 -> 401 ;
402 [label="X[0] <= -0.294\nmse = 0.0\nsamples = 3\nvalue = 0.086", fillcolor="#f6d4bb"] ;
401 -> 402 ;
403 [label="mse = 0.0\nsamples = 1\nvalue = 0.086", fillcolor="#f6d4bb"] ;
402 -> 403 ;
404 [label="mse = 0.0\nsamples = 2\nvalue = 0.086", fillcolor="#f6d4bb"] ;
402 -> 404 ;
405 [label="X[0] <= -0.289\nmse = 0.0\nsamples = 4\nvalue = 0.084", fillcolor="#f6d5bd"] ;
401 -> 405 ;
406 [label="mse = 0.0\nsamples = 2\nvalue = 0.084", fillcolor="#f6d5bc"] ;
405 -> 406 ;
407 [label="mse = 0.0\nsamples = 2\nvalue = 0.083", fillcolor="#f6d5bd"] ;
405 -> 407 ;
408 [label="X[0] <= -0.28\nmse = 0.0\nsamples = 14\nvalue = 0.079", fillcolor="#f7d7c1"] ;
392 -> 408 ;
409 [label="X[0] <= -0.285\nmse = 0.0\nsamples = 7\nvalue = 0.081", fillcolor="#f7d6bf"] ;
408 -> 409 ;
410 [label="X[0] <= -0.287\nmse = 0.0\nsamples = 3\nvalue = 0.082", fillcolor="#f7d6be"] ;
409 -> 410 ;
411 [label="mse = 0.0\nsamples = 1\nvalue = 0.082", fillcolor="#f6d6be"] ;
410 -> 411 ;
412 [label="mse = 0.0\nsamples = 2\nvalue = 0.082", fillcolor="#f7d6bf"] ;
410 -> 412 ;
413 [label="X[0] <= -0.282\nmse = 0.0\nsamples = 4\nvalue = 0.08", fillcolor="#f7d7c0"] ;
409 -> 413 ;
414 [label="mse = 0.0\nsamples = 2\nvalue = 0.08", fillcolor="#f7d7c0"] ;
413 -> 414 ;
415 [label="mse = 0.0\nsamples = 2\nvalue = 0.079", fillcolor="#f7d7c0"] ;
413 -> 415 ;
416 [label="X[0] <= -0.278\nmse = 0.0\nsamples = 7\nvalue = 0.077", fillcolor="#f7d8c2"] ;
408 -> 416 ;
417 [label="X[0] <= -0.28\nmse = 0.0\nsamples = 3\nvalue = 0.078", fillcolor="#f7d8c2"] ;
416 -> 417 ;
418 [label="mse = 0.0\nsamples = 1\nvalue = 0.078", fillcolor="#f7d8c1"] ;
417 -> 418 ;
419 [label="mse = 0.0\nsamples = 2\nvalue = 0.078", fillcolor="#f7d8c2"] ;
417 -> 419 ;
420 [label="X[0] <= -0.275\nmse = 0.0\nsamples = 4\nvalue = 0.076", fillcolor="#f7d9c3"] ;
416 -> 420 ;
421 [label="mse = 0.0\nsamples = 2\nvalue = 0.076", fillcolor="#f7d9c3"] ;
420 -> 421 ;
422 [label="mse = 0.0\nsamples = 2\nvalue = 0.075", fillcolor="#f7d9c3"] ;
420 -> 422 ;
423 [label="X[0] <= -0.245\nmse = 0.0\nsamples = 60\nvalue = 0.06", fillcolor="#f9e1d0"] ;
353 -> 423 ;
424 [label="X[0] <= -0.259\nmse = 0.0\nsamples = 29\nvalue = 0.067", fillcolor="#f8ddca"] ;
423 -> 424 ;
425 [label="X[0] <= -0.266\nmse = 0.0\nsamples = 14\nvalue = 0.071", fillcolor="#f8dbc7"] ;
424 -> 425 ;
426 [label="X[0] <= -0.271\nmse = 0.0\nsamples = 7\nvalue = 0.073", fillcolor="#f7dac5"] ;
425 -> 426 ;
427 [label="X[0] <= -0.273\nmse = 0.0\nsamples = 3\nvalue = 0.074", fillcolor="#f7dac5"] ;
426 -> 427 ;
428 [label="mse = 0.0\nsamples = 1\nvalue = 0.075", fillcolor="#f7dac4"] ;
427 -> 428 ;
429 [label="mse = 0.0\nsamples = 2\nvalue = 0.074", fillcolor="#f7dac5"] ;
427 -> 429 ;
430 [label="X[0] <= -0.269\nmse = 0.0\nsamples = 4\nvalue = 0.072", fillcolor="#f8dbc6"] ;
426 -> 430 ;
431 [label="mse = 0.0\nsamples = 2\nvalue = 0.073", fillcolor="#f7dbc6"] ;
430 -> 431 ;
432 [label="mse = 0.0\nsamples = 2\nvalue = 0.072", fillcolor="#f8dbc7"] ;
430 -> 432 ;
433 [label="X[0] <= -0.264\nmse = 0.0\nsamples = 7\nvalue = 0.069", fillcolor="#f8dcc8"] ;
425 -> 433 ;
434 [label="X[0] <= -0.265\nmse = 0.0\nsamples = 3\nvalue = 0.07", fillcolor="#f8dcc8"] ;
433 -> 434 ;
435 [label="mse = 0.0\nsamples = 1\nvalue = 0.071", fillcolor="#f8dbc7"] ;
434 -> 435 ;
436 [label="mse = 0.0\nsamples = 2\nvalue = 0.07", fillcolor="#f8dcc8"] ;
434 -> 436 ;
437 [label="X[0] <= -0.262\nmse = 0.0\nsamples = 4\nvalue = 0.068", fillcolor="#f8ddc9"] ;
433 -> 437 ;
438 [label="mse = 0.0\nsamples = 2\nvalue = 0.069", fillcolor="#f8dcc9"] ;
437 -> 438 ;
439 [label="mse = 0.0\nsamples = 2\nvalue = 0.068", fillcolor="#f8ddc9"] ;
437 -> 439 ;
440 [label="X[0] <= -0.252\nmse = 0.0\nsamples = 15\nvalue = 0.064", fillcolor="#f8dfcd"] ;
424 -> 440 ;
441 [label="X[0] <= -0.257\nmse = 0.0\nsamples = 7\nvalue = 0.066", fillcolor="#f8decb"] ;
440 -> 441 ;
442 [label="X[0] <= -0.258\nmse = 0.0\nsamples = 3\nvalue = 0.067", fillcolor="#f8deca"] ;
441 -> 442 ;
443 [label="mse = 0.0\nsamples = 1\nvalue = 0.067", fillcolor="#f8ddca"] ;
442 -> 443 ;
444 [label="mse = 0.0\nsamples = 2\nvalue = 0.066", fillcolor="#f8decb"] ;
442 -> 444 ;
445 [label="X[0] <= -0.255\nmse = 0.0\nsamples = 4\nvalue = 0.065", fillcolor="#f8decc"] ;
441 -> 445 ;
446 [label="mse = 0.0\nsamples = 2\nvalue = 0.065", fillcolor="#f8decb"] ;
445 -> 446 ;
447 [label="mse = 0.0\nsamples = 2\nvalue = 0.064", fillcolor="#f8dfcc"] ;
445 -> 447 ;
448 [label="X[0] <= -0.248\nmse = 0.0\nsamples = 8\nvalue = 0.062", fillcolor="#f9e0ce"] ;
440 -> 448 ;
449 [label="X[0] <= -0.25\nmse = 0.0\nsamples = 4\nvalue = 0.063", fillcolor="#f8dfcd"] ;
448 -> 449 ;
450 [label="mse = 0.0\nsamples = 2\nvalue = 0.063", fillcolor="#f8dfcd"] ;
449 -> 450 ;
451 [label="mse = 0.0\nsamples = 2\nvalue = 0.062", fillcolor="#f9e0ce"] ;
449 -> 451 ;
452 [label="X[0] <= -0.247\nmse = 0.0\nsamples = 4\nvalue = 0.061", fillcolor="#f9e0cf"] ;
448 -> 452 ;
453 [label="mse = 0.0\nsamples = 2\nvalue = 0.061", fillcolor="#f9e0cf"] ;
452 -> 453 ;
454 [label="mse = 0.0\nsamples = 2\nvalue = 0.06", fillcolor="#f9e1cf"] ;
452 -> 454 ;
455 [label="X[0] <= -0.23\nmse = 0.0\nsamples = 31\nvalue = 0.053", fillcolor="#fae5d6"] ;
423 -> 455 ;
456 [label="X[0] <= -0.238\nmse = 0.0\nsamples = 15\nvalue = 0.056", fillcolor="#f9e3d3"] ;
455 -> 456 ;
457 [label="X[0] <= -0.241\nmse = 0.0\nsamples = 7\nvalue = 0.058", fillcolor="#f9e2d1"] ;
456 -> 457 ;
458 [label="X[0] <= -0.244\nmse = 0.0\nsamples = 3\nvalue = 0.059", fillcolor="#f9e1d0"] ;
457 -> 458 ;
459 [label="mse = 0.0\nsamples = 1\nvalue = 0.06", fillcolor="#f9e1d0"] ;
458 -> 459 ;
460 [label="mse = 0.0\nsamples = 2\nvalue = 0.059", fillcolor="#f9e1d1"] ;
458 -> 460 ;
461 [label="X[0] <= -0.239\nmse = 0.0\nsamples = 4\nvalue = 0.057", fillcolor="#f9e2d2"] ;
457 -> 461 ;
462 [label="mse = 0.0\nsamples = 2\nvalue = 0.058", fillcolor="#f9e2d1"] ;
461 -> 462 ;
463 [label="mse = 0.0\nsamples = 2\nvalue = 0.057", fillcolor="#f9e2d2"] ;
461 -> 463 ;
464 [label="X[0] <= -0.233\nmse = 0.0\nsamples = 8\nvalue = 0.055", fillcolor="#f9e4d4"] ;
456 -> 464 ;
465 [label="X[0] <= -0.236\nmse = 0.0\nsamples = 4\nvalue = 0.055", fillcolor="#f9e3d3"] ;
464 -> 465 ;
466 [label="mse = 0.0\nsamples = 2\nvalue = 0.056", fillcolor="#f9e3d3"] ;
465 -> 466 ;
467 [label="mse = 0.0\nsamples = 2\nvalue = 0.055", fillcolor="#f9e3d4"] ;
465 -> 467 ;
468 [label="X[0] <= -0.231\nmse = 0.0\nsamples = 4\nvalue = 0.054", fillcolor="#f9e4d5"] ;
464 -> 468 ;
469 [label="mse = 0.0\nsamples = 2\nvalue = 0.054", fillcolor="#f9e4d4"] ;
468 -> 469 ;
470 [label="mse = 0.0\nsamples = 2\nvalue = 0.053", fillcolor="#fae4d5"] ;
468 -> 470 ;
471 [label="X[0] <= -0.222\nmse = 0.0\nsamples = 16\nvalue = 0.049", fillcolor="#fae6d8"] ;
455 -> 471 ;
472 [label="X[0] <= -0.225\nmse = 0.0\nsamples = 8\nvalue = 0.051", fillcolor="#fae5d7"] ;
471 -> 472 ;
473 [label="X[0] <= -0.227\nmse = 0.0\nsamples = 4\nvalue = 0.052", fillcolor="#fae5d6"] ;
472 -> 473 ;
474 [label="mse = 0.0\nsamples = 2\nvalue = 0.052", fillcolor="#fae5d6"] ;
473 -> 474 ;
475 [label="mse = 0.0\nsamples = 2\nvalue = 0.051", fillcolor="#fae5d7"] ;
473 -> 475 ;
476 [label="X[0] <= -0.224\nmse = 0.0\nsamples = 4\nvalue = 0.05", fillcolor="#fae6d8"] ;
472 -> 476 ;
477 [label="mse = 0.0\nsamples = 2\nvalue = 0.05", fillcolor="#fae6d7"] ;
476 -> 477 ;
478 [label="mse = 0.0\nsamples = 2\nvalue = 0.05", fillcolor="#fae6d8"] ;
476 -> 478 ;
479 [label="X[0] <= -0.217\nmse = 0.0\nsamples = 8\nvalue = 0.047", fillcolor="#fae7da"] ;
471 -> 479 ;
480 [label="X[0] <= -0.219\nmse = 0.0\nsamples = 4\nvalue = 0.048", fillcolor="#fae7d9"] ;
479 -> 480 ;
481 [label="mse = 0.0\nsamples = 2\nvalue = 0.049", fillcolor="#fae7d9"] ;
480 -> 481 ;
482 [label="mse = 0.0\nsamples = 2\nvalue = 0.048", fillcolor="#fae7d9"] ;
480 -> 482 ;
483 [label="X[0] <= -0.216\nmse = 0.0\nsamples = 4\nvalue = 0.046", fillcolor="#fae8da"] ;
479 -> 483 ;
484 [label="mse = 0.0\nsamples = 2\nvalue = 0.047", fillcolor="#fae8da"] ;
483 -> 484 ;
485 [label="mse = 0.0\nsamples = 2\nvalue = 0.046", fillcolor="#fae8db"] ;
483 -> 485 ;
486 [label="X[0] <= 0.166\nmse = 0.0\nsamples = 457\nvalue = 0.018", fillcolor="#fdf6f1"] ;
352 -> 486 ;
487 [label="X[0] <= -0.142\nmse = 0.0\nsamples = 379\nvalue = 0.013", fillcolor="#fef9f5"] ;
486 -> 487 ;
488 [label="X[0] <= -0.18\nmse = 0.0\nsamples = 72\nvalue = 0.032", fillcolor="#fcefe6"] ;
487 -> 488 ;
489 [label="X[0] <= -0.196\nmse = 0.0\nsamples = 34\nvalue = 0.039", fillcolor="#fbece1"] ;
488 -> 489 ;
490 [label="X[0] <= -0.205\nmse = 0.0\nsamples = 17\nvalue = 0.042", fillcolor="#fbeade"] ;
489 -> 490 ;
491 [label="X[0] <= -0.209\nmse = 0.0\nsamples = 8\nvalue = 0.044", fillcolor="#fae9dc"] ;
490 -> 491 ;
492 [label="X[0] <= -0.211\nmse = 0.0\nsamples = 4\nvalue = 0.045", fillcolor="#fae9dc"] ;
491 -> 492 ;
493 [label="mse = 0.0\nsamples = 2\nvalue = 0.045", fillcolor="#fae8db"] ;
492 -> 493 ;
494 [label="mse = 0.0\nsamples = 2\nvalue = 0.044", fillcolor="#fae9dc"] ;
492 -> 494 ;
495 [label="X[0] <= -0.208\nmse = 0.0\nsamples = 4\nvalue = 0.043", fillcolor="#fbe9dd"] ;
491 -> 495 ;
496 [label="mse = 0.0\nsamples = 2\nvalue = 0.043", fillcolor="#fbe9dd"] ;
495 -> 496 ;
497 [label="mse = 0.0\nsamples = 2\nvalue = 0.043", fillcolor="#fbeadd"] ;
495 -> 497 ;
498 [label="X[0] <= -0.202\nmse = 0.0\nsamples = 9\nvalue = 0.04", fillcolor="#fbebdf"] ;
490 -> 498 ;
499 [label="X[0] <= -0.203\nmse = 0.0\nsamples = 4\nvalue = 0.041", fillcolor="#fbeade"] ;
498 -> 499 ;
500 [label="mse = 0.0\nsamples = 2\nvalue = 0.042", fillcolor="#fbeade"] ;
499 -> 500 ;
501 [label="mse = 0.0\nsamples = 2\nvalue = 0.041", fillcolor="#fbeadf"] ;
499 -> 501 ;
502 [label="X[0] <= -0.2\nmse = 0.0\nsamples = 5\nvalue = 0.04", fillcolor="#fbebe0"] ;
498 -> 502 ;
503 [label="mse = 0.0\nsamples = 2\nvalue = 0.04", fillcolor="#fbebdf"] ;
502 -> 503 ;
504 [label="X[0] <= -0.198\nmse = 0.0\nsamples = 3\nvalue = 0.039", fillcolor="#fbebe0"] ;
502 -> 504 ;
505 [label="mse = 0.0\nsamples = 1\nvalue = 0.04", fillcolor="#fbebe0"] ;
504 -> 505 ;
506 [label="mse = 0.0\nsamples = 2\nvalue = 0.039", fillcolor="#fbebe0"] ;
504 -> 506 ;
507 [label="X[0] <= -0.188\nmse = 0.0\nsamples = 17\nvalue = 0.035", fillcolor="#fbede3"] ;
489 -> 507 ;
508 [label="X[0] <= -0.193\nmse = 0.0\nsamples = 8\nvalue = 0.037", fillcolor="#fbece2"] ;
507 -> 508 ;
509 [label="X[0] <= -0.194\nmse = 0.0\nsamples = 4\nvalue = 0.038", fillcolor="#fbece1"] ;
508 -> 509 ;
510 [label="mse = 0.0\nsamples = 2\nvalue = 0.038", fillcolor="#fbece1"] ;
509 -> 510 ;
511 [label="mse = 0.0\nsamples = 2\nvalue = 0.037", fillcolor="#fbece2"] ;
509 -> 511 ;
512 [label="X[0] <= -0.19\nmse = 0.0\nsamples = 4\nvalue = 0.036", fillcolor="#fbede2"] ;
508 -> 512 ;
513 [label="mse = 0.0\nsamples = 2\nvalue = 0.037", fillcolor="#fbede2"] ;
512 -> 513 ;
514 [label="mse = 0.0\nsamples = 2\nvalue = 0.036", fillcolor="#fbede3"] ;
512 -> 514 ;
515 [label="X[0] <= -0.185\nmse = 0.0\nsamples = 9\nvalue = 0.034", fillcolor="#fceee4"] ;
507 -> 515 ;
516 [label="X[0] <= -0.187\nmse = 0.0\nsamples = 4\nvalue = 0.035", fillcolor="#fbeee4"] ;
515 -> 516 ;
517 [label="mse = 0.0\nsamples = 2\nvalue = 0.035", fillcolor="#fbede3"] ;
516 -> 517 ;
518 [label="mse = 0.0\nsamples = 2\nvalue = 0.034", fillcolor="#fbeee4"] ;
516 -> 518 ;
519 [label="X[0] <= -0.182\nmse = 0.0\nsamples = 5\nvalue = 0.033", fillcolor="#fceee5"] ;
515 -> 519 ;
520 [label="mse = 0.0\nsamples = 2\nvalue = 0.034", fillcolor="#fceee5"] ;
519 -> 520 ;
521 [label="mse = 0.0\nsamples = 3\nvalue = 0.033", fillcolor="#fcefe5"] ;
519 -> 521 ;
522 [label="X[0] <= -0.161\nmse = 0.0\nsamples = 38\nvalue = 0.026", fillcolor="#fcf2eb"] ;
488 -> 522 ;
523 [label="X[0] <= -0.171\nmse = 0.0\nsamples = 18\nvalue = 0.029", fillcolor="#fcf0e8"] ;
522 -> 523 ;
524 [label="X[0] <= -0.175\nmse = 0.0\nsamples = 9\nvalue = 0.031", fillcolor="#fcf0e7"] ;
523 -> 524 ;
525 [label="X[0] <= -0.178\nmse = 0.0\nsamples = 4\nvalue = 0.032", fillcolor="#fcefe6"] ;
524 -> 525 ;
526 [label="mse = 0.0\nsamples = 2\nvalue = 0.032", fillcolor="#fcefe6"] ;
525 -> 526 ;
527 [label="mse = 0.0\nsamples = 2\nvalue = 0.031", fillcolor="#fcefe7"] ;
525 -> 527 ;
528 [label="X[0] <= -0.173\nmse = 0.0\nsamples = 5\nvalue = 0.03", fillcolor="#fcf0e8"] ;
524 -> 528 ;
529 [label="mse = 0.0\nsamples = 2\nvalue = 0.03", fillcolor="#fcf0e7"] ;
528 -> 529 ;
530 [label="mse = 0.0\nsamples = 3\nvalue = 0.03", fillcolor="#fcf0e8"] ;
528 -> 530 ;
531 [label="X[0] <= -0.166\nmse = 0.0\nsamples = 9\nvalue = 0.028", fillcolor="#fcf1e9"] ;
523 -> 531 ;
532 [label="X[0] <= -0.168\nmse = 0.0\nsamples = 4\nvalue = 0.028", fillcolor="#fcf1e9"] ;
531 -> 532 ;
533 [label="mse = 0.0\nsamples = 2\nvalue = 0.029", fillcolor="#fcf1e8"] ;
532 -> 533 ;
534 [label="mse = 0.0\nsamples = 2\nvalue = 0.028", fillcolor="#fcf1e9"] ;
532 -> 534 ;
535 [label="X[0] <= -0.165\nmse = 0.0\nsamples = 5\nvalue = 0.027", fillcolor="#fcf2ea"] ;
531 -> 535 ;
536 [label="mse = 0.0\nsamples = 2\nvalue = 0.027", fillcolor="#fcf1ea"] ;
535 -> 536 ;
537 [label="mse = 0.0\nsamples = 3\nvalue = 0.027", fillcolor="#fcf2ea"] ;
535 -> 537 ;
538 [label="X[0] <= -0.151\nmse = 0.0\nsamples = 20\nvalue = 0.023", fillcolor="#fdf4ed"] ;
522 -> 538 ;
539 [label="X[0] <= -0.157\nmse = 0.0\nsamples = 10\nvalue = 0.025", fillcolor="#fcf3ec"] ;
538 -> 539 ;
540 [label="X[0] <= -0.159\nmse = 0.0\nsamples = 5\nvalue = 0.025", fillcolor="#fcf2eb"] ;
539 -> 540 ;
541 [label="mse = 0.0\nsamples = 2\nvalue = 0.026", fillcolor="#fcf2eb"] ;
540 -> 541 ;
542 [label="mse = 0.0\nsamples = 3\nvalue = 0.025", fillcolor="#fcf3eb"] ;
540 -> 542 ;
543 [label="X[0] <= -0.155\nmse = 0.0\nsamples = 5\nvalue = 0.024", fillcolor="#fdf3ec"] ;
539 -> 543 ;
544 [label="mse = 0.0\nsamples = 2\nvalue = 0.024", fillcolor="#fdf3ec"] ;
543 -> 544 ;
545 [label="mse = 0.0\nsamples = 3\nvalue = 0.023", fillcolor="#fdf3ed"] ;
543 -> 545 ;
546 [label="X[0] <= -0.146\nmse = 0.0\nsamples = 10\nvalue = 0.021", fillcolor="#fdf4ee"] ;
538 -> 546 ;
547 [label="X[0] <= -0.15\nmse = 0.0\nsamples = 5\nvalue = 0.022", fillcolor="#fdf4ee"] ;
546 -> 547 ;
548 [label="mse = 0.0\nsamples = 2\nvalue = 0.023", fillcolor="#fdf4ed"] ;
547 -> 548 ;
549 [label="mse = 0.0\nsamples = 3\nvalue = 0.022", fillcolor="#fdf4ee"] ;
547 -> 549 ;
550 [label="X[0] <= -0.144\nmse = 0.0\nsamples = 5\nvalue = 0.021", fillcolor="#fdf5ef"] ;
546 -> 550 ;
551 [label="mse = 0.0\nsamples = 2\nvalue = 0.021", fillcolor="#fdf4ee"] ;
550 -> 551 ;
552 [label="mse = 0.0\nsamples = 3\nvalue = 0.02", fillcolor="#fdf5ef"] ;
550 -> 552 ;
553 [label="X[0] <= 0.112\nmse = 0.0\nsamples = 307\nvalue = 0.008", fillcolor="#fefbf9"] ;
487 -> 553 ;
554 [label="X[0] <= -0.093\nmse = 0.0\nsamples = 253\nvalue = 0.006", fillcolor="#fefcfb"] ;
553 -> 554 ;
555 [label="X[0] <= -0.12\nmse = 0.0\nsamples = 48\nvalue = 0.014", fillcolor="#fef8f4"] ;
554 -> 555 ;
556 [label="X[0] <= -0.13\nmse = 0.0\nsamples = 22\nvalue = 0.017", fillcolor="#fdf7f2"] ;
555 -> 556 ;
557 [label="X[0] <= -0.137\nmse = 0.0\nsamples = 11\nvalue = 0.019", fillcolor="#fdf6f1"] ;
556 -> 557 ;
558 [label="X[0] <= -0.139\nmse = 0.0\nsamples = 5\nvalue = 0.019", fillcolor="#fdf5f0"] ;
557 -> 558 ;
559 [label="mse = 0.0\nsamples = 2\nvalue = 0.02", fillcolor="#fdf5f0"] ;
558 -> 559 ;
560 [label="mse = 0.0\nsamples = 3\nvalue = 0.019", fillcolor="#fdf6f0"] ;
558 -> 560 ;
561 [label="X[0] <= -0.134\nmse = 0.0\nsamples = 6\nvalue = 0.018", fillcolor="#fdf6f1"] ;
557 -> 561 ;
562 [label="mse = 0.0\nsamples = 3\nvalue = 0.018", fillcolor="#fdf6f1"] ;
561 -> 562 ;
563 [label="mse = 0.0\nsamples = 3\nvalue = 0.017", fillcolor="#fdf6f1"] ;
561 -> 563 ;
564 [label="X[0] <= -0.126\nmse = 0.0\nsamples = 11\nvalue = 0.016", fillcolor="#fdf7f3"] ;
556 -> 564 ;
565 [label="X[0] <= -0.128\nmse = 0.0\nsamples = 5\nvalue = 0.016", fillcolor="#fdf7f2"] ;
564 -> 565 ;
566 [label="mse = 0.0\nsamples = 2\nvalue = 0.017", fillcolor="#fdf7f2"] ;
565 -> 566 ;
567 [label="mse = 0.0\nsamples = 3\nvalue = 0.016", fillcolor="#fdf7f2"] ;
565 -> 567 ;
568 [label="X[0] <= -0.123\nmse = 0.0\nsamples = 6\nvalue = 0.015", fillcolor="#fdf8f3"] ;
564 -> 568 ;
569 [label="mse = 0.0\nsamples = 3\nvalue = 0.015", fillcolor="#fdf7f3"] ;
568 -> 569 ;
570 [label="mse = 0.0\nsamples = 3\nvalue = 0.015", fillcolor="#fef8f4"] ;
568 -> 570 ;
571 [label="X[0] <= -0.108\nmse = 0.0\nsamples = 26\nvalue = 0.011", fillcolor="#fef9f6"] ;
555 -> 571 ;
572 [label="X[0] <= -0.113\nmse = 0.0\nsamples = 12\nvalue = 0.013", fillcolor="#fef9f5"] ;
571 -> 572 ;
573 [label="X[0] <= -0.116\nmse = 0.0\nsamples = 6\nvalue = 0.014", fillcolor="#fef8f4"] ;
572 -> 573 ;
574 [label="mse = 0.0\nsamples = 3\nvalue = 0.014", fillcolor="#fef8f4"] ;
573 -> 574 ;
575 [label="mse = 0.0\nsamples = 3\nvalue = 0.013", fillcolor="#fef8f5"] ;
573 -> 575 ;
576 [label="X[0] <= -0.111\nmse = 0.0\nsamples = 6\nvalue = 0.012", fillcolor="#fef9f6"] ;
572 -> 576 ;
577 [label="mse = 0.0\nsamples = 3\nvalue = 0.013", fillcolor="#fef9f5"] ;
576 -> 577 ;
578 [label="mse = 0.0\nsamples = 3\nvalue = 0.012", fillcolor="#fef9f6"] ;
576 -> 578 ;
579 [label="X[0] <= -0.101\nmse = 0.0\nsamples = 14\nvalue = 0.01", fillcolor="#fefaf7"] ;
571 -> 579 ;
580 [label="X[0] <= -0.104\nmse = 0.0\nsamples = 7\nvalue = 0.011", fillcolor="#fefaf7"] ;
579 -> 580 ;
581 [label="mse = 0.0\nsamples = 3\nvalue = 0.011", fillcolor="#fef9f6"] ;
580 -> 581 ;
582 [label="mse = 0.0\nsamples = 4\nvalue = 0.011", fillcolor="#fefaf7"] ;
580 -> 582 ;
583 [label="X[0] <= -0.098\nmse = 0.0\nsamples = 7\nvalue = 0.009", fillcolor="#fefaf8"] ;
579 -> 583 ;
584 [label="mse = 0.0\nsamples = 3\nvalue = 0.01", fillcolor="#fefaf7"] ;
583 -> 584 ;
585 [label="mse = 0.0\nsamples = 4\nvalue = 0.009", fillcolor="#fefbf8"] ;
583 -> 585 ;
586 [label="X[0] <= 0.076\nmse = 0.0\nsamples = 205\nvalue = 0.004", fillcolor="#fffdfc"] ;
554 -> 586 ;
587 [label="X[0] <= -0.062\nmse = 0.0\nsamples = 169\nvalue = 0.002", fillcolor="#fffefd"] ;
586 -> 587 ;
588 [label="X[0] <= -0.08\nmse = 0.0\nsamples = 31\nvalue = 0.006", fillcolor="#fefcfa"] ;
587 -> 588 ;
589 [label="X[0] <= -0.087\nmse = 0.0\nsamples = 14\nvalue = 0.007", fillcolor="#fefbf9"] ;
588 -> 589 ;
590 [label="X[0] <= -0.091\nmse = 0.0\nsamples = 7\nvalue = 0.008", fillcolor="#fefbf9"] ;
589 -> 590 ;
591 [label="mse = 0.0\nsamples = 3\nvalue = 0.008", fillcolor="#fefbf9"] ;
590 -> 591 ;
592 [label="mse = 0.0\nsamples = 4\nvalue = 0.008", fillcolor="#fefbf9"] ;
590 -> 592 ;
593 [label="X[0] <= -0.083\nmse = 0.0\nsamples = 7\nvalue = 0.007", fillcolor="#fefcfa"] ;
589 -> 593 ;
594 [label="mse = 0.0\nsamples = 3\nvalue = 0.007", fillcolor="#fefcfa"] ;
593 -> 594 ;
595 [label="mse = 0.0\nsamples = 4\nvalue = 0.007", fillcolor="#fefcfa"] ;
593 -> 595 ;
596 [label="X[0] <= -0.071\nmse = 0.0\nsamples = 17\nvalue = 0.005", fillcolor="#fffdfb"] ;
588 -> 596 ;
597 [label="X[0] <= -0.076\nmse = 0.0\nsamples = 8\nvalue = 0.006", fillcolor="#fefcfb"] ;
596 -> 597 ;
598 [label="mse = 0.0\nsamples = 4\nvalue = 0.006", fillcolor="#fefcfa"] ;
597 -> 598 ;
599 [label="mse = 0.0\nsamples = 4\nvalue = 0.005", fillcolor="#fefcfb"] ;
597 -> 599 ;
600 [label="X[0] <= -0.068\nmse = 0.0\nsamples = 9\nvalue = 0.004", fillcolor="#fffdfc"] ;
596 -> 600 ;
601 [label="mse = 0.0\nsamples = 4\nvalue = 0.005", fillcolor="#fffdfb"] ;
600 -> 601 ;
602 [label="mse = 0.0\nsamples = 5\nvalue = 0.004", fillcolor="#fffdfc"] ;
600 -> 602 ;
603 [label="X[0] <= 0.05\nmse = 0.0\nsamples = 138\nvalue = 0.002", fillcolor="#fffefe"] ;
587 -> 603 ;
604 [label="X[0] <= -0.042\nmse = 0.0\nsamples = 113\nvalue = 0.001", fillcolor="#fffffe"] ;
603 -> 604 ;
605 [label="X[0] <= -0.053\nmse = 0.0\nsamples = 21\nvalue = 0.003", fillcolor="#fffefd"] ;
604 -> 605 ;
606 [label="X[0] <= -0.057\nmse = 0.0\nsamples = 10\nvalue = 0.003", fillcolor="#fffdfd"] ;
605 -> 606 ;
607 [label="mse = 0.0\nsamples = 5\nvalue = 0.004", fillcolor="#fffdfc"] ;
606 -> 607 ;
608 [label="mse = 0.0\nsamples = 5\nvalue = 0.003", fillcolor="#fffefd"] ;
606 -> 608 ;
609 [label="mse = 0.0\nsamples = 11\nvalue = 0.002", fillcolor="#fffefd"] ;
605 -> 609 ;
610 [label="X[0] <= 0.034\nmse = 0.0\nsamples = 92\nvalue = 0.001", fillcolor="#ffffff"] ;
604 -> 610 ;
611 [label="X[0] <= -0.028\nmse = 0.0\nsamples = 75\nvalue = 0.0", fillcolor="#ffffff"] ;
610 -> 611 ;
612 [label="mse = 0.0\nsamples = 14\nvalue = 0.001", fillcolor="#fffffe"] ;
611 -> 612 ;
613 [label="mse = 0.0\nsamples = 61\nvalue = 0.0", fillcolor="#ffffff"] ;
611 -> 613 ;
614 [label="X[0] <= 0.043\nmse = 0.0\nsamples = 17\nvalue = 0.002", fillcolor="#fffefe"] ;
610 -> 614 ;
615 [label="mse = 0.0\nsamples = 9\nvalue = 0.001", fillcolor="#fffefe"] ;
614 -> 615 ;
616 [label="mse = 0.0\nsamples = 8\nvalue = 0.002", fillcolor="#fffefe"] ;
614 -> 616 ;
617 [label="X[0] <= 0.064\nmse = 0.0\nsamples = 25\nvalue = 0.004", fillcolor="#fffdfc"] ;
603 -> 617 ;
618 [label="X[0] <= 0.057\nmse = 0.0\nsamples = 13\nvalue = 0.003", fillcolor="#fffefd"] ;
617 -> 618 ;
619 [label="mse = 0.0\nsamples = 7\nvalue = 0.003", fillcolor="#fffefd"] ;
618 -> 619 ;
620 [label="mse = 0.0\nsamples = 6\nvalue = 0.004", fillcolor="#fffdfc"] ;
618 -> 620 ;
621 [label="X[0] <= 0.069\nmse = 0.0\nsamples = 12\nvalue = 0.005", fillcolor="#fffdfb"] ;
617 -> 621 ;
622 [label="mse = 0.0\nsamples = 6\nvalue = 0.004", fillcolor="#fffdfc"] ;
621 -> 622 ;
623 [label="mse = 0.0\nsamples = 6\nvalue = 0.005", fillcolor="#fefdfb"] ;
621 -> 623 ;
624 [label="X[0] <= 0.094\nmse = 0.0\nsamples = 36\nvalue = 0.009", fillcolor="#fefbf8"] ;
586 -> 624 ;
625 [label="X[0] <= 0.086\nmse = 0.0\nsamples = 19\nvalue = 0.007", fillcolor="#fefbf9"] ;
624 -> 625 ;
626 [label="X[0] <= 0.08\nmse = 0.0\nsamples = 10\nvalue = 0.006", fillcolor="#fefcfa"] ;
625 -> 626 ;
627 [label="mse = 0.0\nsamples = 5\nvalue = 0.006", fillcolor="#fefcfa"] ;
626 -> 627 ;
628 [label="mse = 0.0\nsamples = 5\nvalue = 0.007", fillcolor="#fefcfa"] ;
626 -> 628 ;
629 [label="X[0] <= 0.091\nmse = 0.0\nsamples = 9\nvalue = 0.008", fillcolor="#fefbf9"] ;
625 -> 629 ;
630 [label="mse = 0.0\nsamples = 5\nvalue = 0.008", fillcolor="#fefbf9"] ;
629 -> 630 ;
631 [label="mse = 0.0\nsamples = 4\nvalue = 0.009", fillcolor="#fefbf8"] ;
629 -> 631 ;
632 [label="X[0] <= 0.104\nmse = 0.0\nsamples = 17\nvalue = 0.011", fillcolor="#fefaf7"] ;
624 -> 632 ;
633 [label="X[0] <= 0.1\nmse = 0.0\nsamples = 9\nvalue = 0.01", fillcolor="#fefaf7"] ;
632 -> 633 ;
634 [label="mse = 0.0\nsamples = 5\nvalue = 0.009", fillcolor="#fefaf8"] ;
633 -> 634 ;
635 [label="mse = 0.0\nsamples = 4\nvalue = 0.01", fillcolor="#fefaf7"] ;
633 -> 635 ;
636 [label="X[0] <= 0.108\nmse = 0.0\nsamples = 8\nvalue = 0.012", fillcolor="#fef9f6"] ;
632 -> 636 ;
637 [label="mse = 0.0\nsamples = 4\nvalue = 0.011", fillcolor="#fefaf6"] ;
636 -> 637 ;
638 [label="mse = 0.0\nsamples = 4\nvalue = 0.012", fillcolor="#fef9f6"] ;
636 -> 638 ;
639 [label="X[0] <= 0.141\nmse = 0.0\nsamples = 54\nvalue = 0.019", fillcolor="#fdf5f0"] ;
553 -> 639 ;
640 [label="X[0] <= 0.127\nmse = 0.0\nsamples = 29\nvalue = 0.016", fillcolor="#fdf7f3"] ;
639 -> 640 ;
641 [label="X[0] <= 0.12\nmse = 0.0\nsamples = 15\nvalue = 0.014", fillcolor="#fef8f4"] ;
640 -> 641 ;
642 [label="X[0] <= 0.115\nmse = 0.0\nsamples = 8\nvalue = 0.013", fillcolor="#fef8f5"] ;
641 -> 642 ;
643 [label="mse = 0.0\nsamples = 4\nvalue = 0.013", fillcolor="#fef9f5"] ;
642 -> 643 ;
644 [label="mse = 0.0\nsamples = 4\nvalue = 0.014", fillcolor="#fef8f4"] ;
642 -> 644 ;
645 [label="X[0] <= 0.124\nmse = 0.0\nsamples = 7\nvalue = 0.015", fillcolor="#fdf8f3"] ;
641 -> 645 ;
646 [label="mse = 0.0\nsamples = 4\nvalue = 0.015", fillcolor="#fdf8f4"] ;
645 -> 646 ;
647 [label="mse = 0.0\nsamples = 3\nvalue = 0.016", fillcolor="#fdf7f3"] ;
645 -> 647 ;
648 [label="X[0] <= 0.134\nmse = 0.0\nsamples = 14\nvalue = 0.018", fillcolor="#fdf6f1"] ;
640 -> 648 ;
649 [label="X[0] <= 0.13\nmse = 0.0\nsamples = 7\nvalue = 0.017", fillcolor="#fdf7f2"] ;
648 -> 649 ;
650 [label="mse = 0.0\nsamples = 4\nvalue = 0.017", fillcolor="#fdf7f2"] ;
649 -> 650 ;
651 [label="mse = 0.0\nsamples = 3\nvalue = 0.017", fillcolor="#fdf6f1"] ;
649 -> 651 ;
652 [label="X[0] <= 0.137\nmse = 0.0\nsamples = 7\nvalue = 0.019", fillcolor="#fdf6f0"] ;
648 -> 652 ;
653 [label="mse = 0.0\nsamples = 4\nvalue = 0.018", fillcolor="#fdf6f1"] ;
652 -> 653 ;
654 [label="mse = 0.0\nsamples = 3\nvalue = 0.019", fillcolor="#fdf5f0"] ;
652 -> 654 ;
655 [label="X[0] <= 0.153\nmse = 0.0\nsamples = 25\nvalue = 0.023", fillcolor="#fdf3ed"] ;
639 -> 655 ;
656 [label="X[0] <= 0.148\nmse = 0.0\nsamples = 13\nvalue = 0.022", fillcolor="#fdf4ee"] ;
655 -> 656 ;
657 [label="X[0] <= 0.144\nmse = 0.0\nsamples = 7\nvalue = 0.021", fillcolor="#fdf5ef"] ;
656 -> 657 ;
658 [label="X[0] <= 0.143\nmse = 0.0\nsamples = 4\nvalue = 0.02", fillcolor="#fdf5ef"] ;
657 -> 658 ;
659 [label="mse = 0.0\nsamples = 2\nvalue = 0.02", fillcolor="#fdf5ef"] ;
658 -> 659 ;
660 [label="mse = 0.0\nsamples = 2\nvalue = 0.021", fillcolor="#fdf5ef"] ;
658 -> 660 ;
661 [label="mse = 0.0\nsamples = 3\nvalue = 0.021", fillcolor="#fdf4ee"] ;
657 -> 661 ;
662 [label="X[0] <= 0.15\nmse = 0.0\nsamples = 6\nvalue = 0.023", fillcolor="#fdf4ed"] ;
656 -> 662 ;
663 [label="mse = 0.0\nsamples = 3\nvalue = 0.022", fillcolor="#fdf4ee"] ;
662 -> 663 ;
664 [label="mse = 0.0\nsamples = 3\nvalue = 0.023", fillcolor="#fdf4ed"] ;
662 -> 664 ;
665 [label="X[0] <= 0.159\nmse = 0.0\nsamples = 12\nvalue = 0.025", fillcolor="#fcf2eb"] ;
655 -> 665 ;
666 [label="X[0] <= 0.157\nmse = 0.0\nsamples = 6\nvalue = 0.024", fillcolor="#fcf3ec"] ;
665 -> 666 ;
667 [label="mse = 0.0\nsamples = 3\nvalue = 0.024", fillcolor="#fdf3ec"] ;
666 -> 667 ;
668 [label="mse = 0.0\nsamples = 3\nvalue = 0.025", fillcolor="#fcf3eb"] ;
666 -> 668 ;
669 [label="X[0] <= 0.163\nmse = 0.0\nsamples = 6\nvalue = 0.026", fillcolor="#fcf2ea"] ;
665 -> 669 ;
670 [label="mse = 0.0\nsamples = 3\nvalue = 0.026", fillcolor="#fcf2eb"] ;
669 -> 670 ;
671 [label="mse = 0.0\nsamples = 3\nvalue = 0.027", fillcolor="#fcf2ea"] ;
669 -> 671 ;
672 [label="X[0] <= 0.207\nmse = 0.0\nsamples = 78\nvalue = 0.042", fillcolor="#fbeade"] ;
486 -> 672 ;
673 [label="X[0] <= 0.187\nmse = 0.0\nsamples = 41\nvalue = 0.035", fillcolor="#fbeee4"] ;
672 -> 673 ;
674 [label="X[0] <= 0.177\nmse = 0.0\nsamples = 21\nvalue = 0.031", fillcolor="#fcf0e7"] ;
673 -> 674 ;
675 [label="X[0] <= 0.172\nmse = 0.0\nsamples = 11\nvalue = 0.029", fillcolor="#fcf0e8"] ;
674 -> 675 ;
676 [label="X[0] <= 0.168\nmse = 0.0\nsamples = 6\nvalue = 0.028", fillcolor="#fcf1e9"] ;
675 -> 676 ;
677 [label="mse = 0.0\nsamples = 3\nvalue = 0.028", fillcolor="#fcf1e9"] ;
676 -> 677 ;
678 [label="mse = 0.0\nsamples = 3\nvalue = 0.029", fillcolor="#fcf1e8"] ;
676 -> 678 ;
679 [label="X[0] <= 0.174\nmse = 0.0\nsamples = 5\nvalue = 0.03", fillcolor="#fcf0e7"] ;
675 -> 679 ;
680 [label="mse = 0.0\nsamples = 3\nvalue = 0.03", fillcolor="#fcf0e8"] ;
679 -> 680 ;
681 [label="mse = 0.0\nsamples = 2\nvalue = 0.031", fillcolor="#fcf0e7"] ;
679 -> 681 ;
682 [label="X[0] <= 0.181\nmse = 0.0\nsamples = 10\nvalue = 0.033", fillcolor="#fcefe5"] ;
674 -> 682 ;
683 [label="X[0] <= 0.18\nmse = 0.0\nsamples = 5\nvalue = 0.032", fillcolor="#fcefe6"] ;
682 -> 683 ;
684 [label="mse = 0.0\nsamples = 3\nvalue = 0.032", fillcolor="#fcefe6"] ;
683 -> 684 ;
685 [label="mse = 0.0\nsamples = 2\nvalue = 0.033", fillcolor="#fcefe5"] ;
683 -> 685 ;
686 [label="X[0] <= 0.185\nmse = 0.0\nsamples = 5\nvalue = 0.034", fillcolor="#fceee4"] ;
682 -> 686 ;
687 [label="mse = 0.0\nsamples = 3\nvalue = 0.033", fillcolor="#fceee5"] ;
686 -> 687 ;
688 [label="mse = 0.0\nsamples = 2\nvalue = 0.034", fillcolor="#fbeee4"] ;
686 -> 688 ;
689 [label="X[0] <= 0.196\nmse = 0.0\nsamples = 20\nvalue = 0.039", fillcolor="#fbece1"] ;
673 -> 689 ;
690 [label="X[0] <= 0.192\nmse = 0.0\nsamples = 10\nvalue = 0.037", fillcolor="#fbede2"] ;
689 -> 690 ;
691 [label="X[0] <= 0.189\nmse = 0.0\nsamples = 5\nvalue = 0.036", fillcolor="#fbede3"] ;
690 -> 691 ;
692 [label="mse = 0.0\nsamples = 3\nvalue = 0.035", fillcolor="#fbede3"] ;
691 -> 692 ;
693 [label="mse = 0.0\nsamples = 2\nvalue = 0.036", fillcolor="#fbede2"] ;
691 -> 693 ;
694 [label="X[0] <= 0.194\nmse = 0.0\nsamples = 5\nvalue = 0.038", fillcolor="#fbece1"] ;
690 -> 694 ;
695 [label="mse = 0.0\nsamples = 3\nvalue = 0.037", fillcolor="#fbece2"] ;
694 -> 695 ;
696 [label="mse = 0.0\nsamples = 2\nvalue = 0.038", fillcolor="#fbece1"] ;
694 -> 696 ;
697 [label="X[0] <= 0.202\nmse = 0.0\nsamples = 10\nvalue = 0.041", fillcolor="#fbebdf"] ;
689 -> 697 ;
698 [label="X[0] <= 0.2\nmse = 0.0\nsamples = 5\nvalue = 0.04", fillcolor="#fbebe0"] ;
697 -> 698 ;
699 [label="X[0] <= 0.198\nmse = 0.0\nsamples = 3\nvalue = 0.039", fillcolor="#fbebe0"] ;
698 -> 699 ;
700 [label="mse = 0.0\nsamples = 2\nvalue = 0.039", fillcolor="#fbebe0"] ;
699 -> 700 ;
701 [label="mse = 0.0\nsamples = 1\nvalue = 0.04", fillcolor="#fbebe0"] ;
699 -> 701 ;
702 [label="mse = 0.0\nsamples = 2\nvalue = 0.04", fillcolor="#fbebdf"] ;
698 -> 702 ;
703 [label="X[0] <= 0.204\nmse = 0.0\nsamples = 5\nvalue = 0.042", fillcolor="#fbeade"] ;
697 -> 703 ;
704 [label="X[0] <= 0.203\nmse = 0.0\nsamples = 3\nvalue = 0.041", fillcolor="#fbeadf"] ;
703 -> 704 ;
705 [label="mse = 0.0\nsamples = 2\nvalue = 0.041", fillcolor="#fbeadf"] ;
704 -> 705 ;
706 [label="mse = -0.0\nsamples = 1\nvalue = 0.042", fillcolor="#fbeade"] ;
704 -> 706 ;
707 [label="mse = 0.0\nsamples = 2\nvalue = 0.042", fillcolor="#fbeade"] ;
703 -> 707 ;
708 [label="X[0] <= 0.225\nmse = 0.0\nsamples = 37\nvalue = 0.051", fillcolor="#fae6d7"] ;
672 -> 708 ;
709 [label="X[0] <= 0.216\nmse = 0.0\nsamples = 19\nvalue = 0.047", fillcolor="#fae8da"] ;
708 -> 709 ;
710 [label="X[0] <= 0.211\nmse = 0.0\nsamples = 10\nvalue = 0.045", fillcolor="#fae9dc"] ;
709 -> 710 ;
711 [label="X[0] <= 0.209\nmse = 0.0\nsamples = 5\nvalue = 0.044", fillcolor="#fae9dd"] ;
710 -> 711 ;
712 [label="X[0] <= 0.209\nmse = 0.0\nsamples = 3\nvalue = 0.043", fillcolor="#fbe9dd"] ;
711 -> 712 ;
713 [label="mse = 0.0\nsamples = 2\nvalue = 0.043", fillcolor="#fbe9dd"] ;
712 -> 713 ;
714 [label="mse = 0.0\nsamples = 1\nvalue = 0.044", fillcolor="#fae9dd"] ;
712 -> 714 ;
715 [label="mse = 0.0\nsamples = 2\nvalue = 0.044", fillcolor="#fae9dc"] ;
711 -> 715 ;
716 [label="X[0] <= 0.215\nmse = 0.0\nsamples = 5\nvalue = 0.046", fillcolor="#fae8db"] ;
710 -> 716 ;
717 [label="X[0] <= 0.214\nmse = 0.0\nsamples = 3\nvalue = 0.045", fillcolor="#fae8db"] ;
716 -> 717 ;
718 [label="mse = 0.0\nsamples = 2\nvalue = 0.045", fillcolor="#fae8db"] ;
717 -> 718 ;
719 [label="mse = -0.0\nsamples = 1\nvalue = 0.046", fillcolor="#fae8db"] ;
717 -> 719 ;
720 [label="mse = 0.0\nsamples = 2\nvalue = 0.046", fillcolor="#fae8da"] ;
716 -> 720 ;
721 [label="X[0] <= 0.222\nmse = 0.0\nsamples = 9\nvalue = 0.049", fillcolor="#fae7d9"] ;
709 -> 721 ;
722 [label="X[0] <= 0.219\nmse = 0.0\nsamples = 5\nvalue = 0.048", fillcolor="#fae7d9"] ;
721 -> 722 ;
723 [label="X[0] <= 0.218\nmse = 0.0\nsamples = 3\nvalue = 0.048", fillcolor="#fae7da"] ;
722 -> 723 ;
724 [label="mse = 0.0\nsamples = 2\nvalue = 0.047", fillcolor="#fae7da"] ;
723 -> 724 ;
725 [label="mse = 0.0\nsamples = 1\nvalue = 0.048", fillcolor="#fae7d9"] ;
723 -> 725 ;
726 [label="mse = 0.0\nsamples = 2\nvalue = 0.049", fillcolor="#fae7d9"] ;
722 -> 726 ;
727 [label="X[0] <= 0.224\nmse = 0.0\nsamples = 4\nvalue = 0.05", fillcolor="#fae6d8"] ;
721 -> 727 ;
728 [label="mse = 0.0\nsamples = 2\nvalue = 0.05", fillcolor="#fae6d8"] ;
727 -> 728 ;
729 [label="mse = 0.0\nsamples = 2\nvalue = 0.05", fillcolor="#fae6d7"] ;
727 -> 729 ;
730 [label="X[0] <= 0.234\nmse = 0.0\nsamples = 18\nvalue = 0.055", fillcolor="#f9e3d4"] ;
708 -> 730 ;
731 [label="X[0] <= 0.231\nmse = 0.0\nsamples = 9\nvalue = 0.053", fillcolor="#fae4d5"] ;
730 -> 731 ;
732 [label="X[0] <= 0.229\nmse = 0.0\nsamples = 5\nvalue = 0.052", fillcolor="#fae5d6"] ;
731 -> 732 ;
733 [label="X[0] <= 0.227\nmse = 0.0\nsamples = 3\nvalue = 0.052", fillcolor="#fae5d6"] ;
732 -> 733 ;
734 [label="mse = 0.0\nsamples = 2\nvalue = 0.051", fillcolor="#fae5d7"] ;
733 -> 734 ;
735 [label="mse = 0.0\nsamples = 1\nvalue = 0.052", fillcolor="#fae5d6"] ;
733 -> 735 ;
736 [label="mse = 0.0\nsamples = 2\nvalue = 0.053", fillcolor="#fae5d5"] ;
732 -> 736 ;
737 [label="X[0] <= 0.232\nmse = 0.0\nsamples = 4\nvalue = 0.054", fillcolor="#f9e4d4"] ;
731 -> 737 ;
738 [label="mse = 0.0\nsamples = 2\nvalue = 0.054", fillcolor="#f9e4d5"] ;
737 -> 738 ;
739 [label="mse = 0.0\nsamples = 2\nvalue = 0.055", fillcolor="#f9e4d4"] ;
737 -> 739 ;
740 [label="X[0] <= 0.239\nmse = 0.0\nsamples = 9\nvalue = 0.057", fillcolor="#f9e2d2"] ;
730 -> 740 ;
741 [label="X[0] <= 0.238\nmse = 0.0\nsamples = 5\nvalue = 0.056", fillcolor="#f9e3d3"] ;
740 -> 741 ;
742 [label="X[0] <= 0.237\nmse = 0.0\nsamples = 3\nvalue = 0.056", fillcolor="#f9e3d3"] ;
741 -> 742 ;
743 [label="mse = 0.0\nsamples = 2\nvalue = 0.055", fillcolor="#f9e3d3"] ;
742 -> 743 ;
744 [label="mse = 0.0\nsamples = 1\nvalue = 0.056", fillcolor="#f9e3d3"] ;
742 -> 744 ;
745 [label="mse = 0.0\nsamples = 2\nvalue = 0.057", fillcolor="#f9e2d2"] ;
741 -> 745 ;
746 [label="X[0] <= 0.241\nmse = 0.0\nsamples = 4\nvalue = 0.058", fillcolor="#f9e2d1"] ;
740 -> 746 ;
747 [label="mse = 0.0\nsamples = 2\nvalue = 0.058", fillcolor="#f9e2d1"] ;
746 -> 747 ;
748 [label="mse = 0.0\nsamples = 2\nvalue = 0.059", fillcolor="#f9e1d1"] ;
746 -> 748 ;
749 [label="X[0] <= 0.301\nmse = 0.0\nsamples = 110\nvalue = 0.09", fillcolor="#f6d2b8"] ;
351 -> 749 ;
750 [label="X[0] <= 0.273\nmse = 0.0\nsamples = 58\nvalue = 0.075", fillcolor="#f7dac4"] ;
749 -> 750 ;
751 [label="X[0] <= 0.258\nmse = 0.0\nsamples = 30\nvalue = 0.067", fillcolor="#f8ddca"] ;
750 -> 751 ;
752 [label="X[0] <= 0.251\nmse = 0.0\nsamples = 15\nvalue = 0.063", fillcolor="#f8dfcd"] ;
751 -> 752 ;
753 [label="X[0] <= 0.247\nmse = 0.0\nsamples = 8\nvalue = 0.061", fillcolor="#f9e0cf"] ;
752 -> 753 ;
754 [label="X[0] <= 0.246\nmse = 0.0\nsamples = 4\nvalue = 0.06", fillcolor="#f9e1cf"] ;
753 -> 754 ;
755 [label="mse = 0.0\nsamples = 2\nvalue = 0.06", fillcolor="#f9e1d0"] ;
754 -> 755 ;
756 [label="mse = 0.0\nsamples = 2\nvalue = 0.061", fillcolor="#f9e0cf"] ;
754 -> 756 ;
757 [label="X[0] <= 0.249\nmse = 0.0\nsamples = 4\nvalue = 0.062", fillcolor="#f9e0ce"] ;
753 -> 757 ;
758 [label="mse = 0.0\nsamples = 2\nvalue = 0.062", fillcolor="#f9e0ce"] ;
757 -> 758 ;
759 [label="mse = 0.0\nsamples = 2\nvalue = 0.063", fillcolor="#f8dfcd"] ;
757 -> 759 ;
760 [label="X[0] <= 0.256\nmse = 0.0\nsamples = 7\nvalue = 0.065", fillcolor="#f8decc"] ;
752 -> 760 ;
761 [label="X[0] <= 0.253\nmse = 0.0\nsamples = 4\nvalue = 0.064", fillcolor="#f8dfcc"] ;
760 -> 761 ;
762 [label="mse = 0.0\nsamples = 2\nvalue = 0.064", fillcolor="#f8dfcd"] ;
761 -> 762 ;
763 [label="mse = 0.0\nsamples = 2\nvalue = 0.065", fillcolor="#f8decc"] ;
761 -> 763 ;
764 [label="X[0] <= 0.257\nmse = 0.0\nsamples = 3\nvalue = 0.066", fillcolor="#f8decb"] ;
760 -> 764 ;
765 [label="mse = 0.0\nsamples = 2\nvalue = 0.066", fillcolor="#f8decb"] ;
764 -> 765 ;
766 [label="mse = -0.0\nsamples = 1\nvalue = 0.067", fillcolor="#f8deca"] ;
764 -> 766 ;
767 [label="X[0] <= 0.266\nmse = 0.0\nsamples = 15\nvalue = 0.071", fillcolor="#f8dbc7"] ;
751 -> 767 ;
768 [label="X[0] <= 0.263\nmse = 0.0\nsamples = 8\nvalue = 0.069", fillcolor="#f8dcc9"] ;
767 -> 768 ;
769 [label="X[0] <= 0.26\nmse = 0.0\nsamples = 4\nvalue = 0.068", fillcolor="#f8ddc9"] ;
768 -> 769 ;
770 [label="mse = 0.0\nsamples = 2\nvalue = 0.067", fillcolor="#f8ddca"] ;
769 -> 770 ;
771 [label="mse = 0.0\nsamples = 2\nvalue = 0.068", fillcolor="#f8ddc9"] ;
769 -> 771 ;
772 [label="X[0] <= 0.264\nmse = 0.0\nsamples = 4\nvalue = 0.07", fillcolor="#f8dcc8"] ;
768 -> 772 ;
773 [label="mse = 0.0\nsamples = 2\nvalue = 0.069", fillcolor="#f8dcc8"] ;
772 -> 773 ;
774 [label="mse = 0.0\nsamples = 2\nvalue = 0.07", fillcolor="#f8dcc7"] ;
772 -> 774 ;
775 [label="X[0] <= 0.271\nmse = 0.0\nsamples = 7\nvalue = 0.073", fillcolor="#f7dac5"] ;
767 -> 775 ;
776 [label="X[0] <= 0.269\nmse = 0.0\nsamples = 4\nvalue = 0.072", fillcolor="#f8dbc6"] ;
775 -> 776 ;
777 [label="mse = 0.0\nsamples = 2\nvalue = 0.072", fillcolor="#f8dbc7"] ;
776 -> 777 ;
778 [label="mse = 0.0\nsamples = 2\nvalue = 0.073", fillcolor="#f7dbc6"] ;
776 -> 778 ;
779 [label="X[0] <= 0.273\nmse = 0.0\nsamples = 3\nvalue = 0.074", fillcolor="#f7dac5"] ;
775 -> 779 ;
780 [label="mse = 0.0\nsamples = 2\nvalue = 0.074", fillcolor="#f7dac5"] ;
779 -> 780 ;
781 [label="mse = 0.0\nsamples = 1\nvalue = 0.075", fillcolor="#f7dac4"] ;
779 -> 781 ;
782 [label="X[0] <= 0.287\nmse = 0.0\nsamples = 28\nvalue = 0.083", fillcolor="#f6d5be"] ;
750 -> 782 ;
783 [label="X[0] <= 0.28\nmse = 0.0\nsamples = 14\nvalue = 0.079", fillcolor="#f7d7c1"] ;
782 -> 783 ;
784 [label="X[0] <= 0.278\nmse = 0.0\nsamples = 7\nvalue = 0.077", fillcolor="#f7d8c2"] ;
783 -> 784 ;
785 [label="X[0] <= 0.275\nmse = 0.0\nsamples = 4\nvalue = 0.076", fillcolor="#f7d9c3"] ;
784 -> 785 ;
786 [label="mse = 0.0\nsamples = 2\nvalue = 0.075", fillcolor="#f7d9c3"] ;
785 -> 786 ;
787 [label="mse = 0.0\nsamples = 2\nvalue = 0.076", fillcolor="#f7d9c3"] ;
785 -> 787 ;
788 [label="X[0] <= 0.28\nmse = 0.0\nsamples = 3\nvalue = 0.078", fillcolor="#f7d8c2"] ;
784 -> 788 ;
789 [label="mse = 0.0\nsamples = 2\nvalue = 0.078", fillcolor="#f7d8c2"] ;
788 -> 789 ;
790 [label="mse = -0.0\nsamples = 1\nvalue = 0.078", fillcolor="#f7d8c1"] ;
788 -> 790 ;
791 [label="X[0] <= 0.285\nmse = 0.0\nsamples = 7\nvalue = 0.081", fillcolor="#f7d6bf"] ;
783 -> 791 ;
792 [label="X[0] <= 0.282\nmse = 0.0\nsamples = 4\nvalue = 0.08", fillcolor="#f7d7c0"] ;
791 -> 792 ;
793 [label="mse = 0.0\nsamples = 2\nvalue = 0.079", fillcolor="#f7d7c0"] ;
792 -> 793 ;
794 [label="mse = 0.0\nsamples = 2\nvalue = 0.08", fillcolor="#f7d7c0"] ;
792 -> 794 ;
795 [label="X[0] <= 0.287\nmse = 0.0\nsamples = 3\nvalue = 0.082", fillcolor="#f7d6be"] ;
791 -> 795 ;
796 [label="mse = 0.0\nsamples = 2\nvalue = 0.082", fillcolor="#f7d6bf"] ;
795 -> 796 ;
797 [label="mse = 0.0\nsamples = 1\nvalue = 0.082", fillcolor="#f6d6be"] ;
795 -> 797 ;
798 [label="X[0] <= 0.294\nmse = 0.0\nsamples = 14\nvalue = 0.087", fillcolor="#f6d3ba"] ;
782 -> 798 ;
799 [label="X[0] <= 0.292\nmse = 0.0\nsamples = 7\nvalue = 0.085", fillcolor="#f6d4bc"] ;
798 -> 799 ;
800 [label="X[0] <= 0.289\nmse = 0.0\nsamples = 4\nvalue = 0.084", fillcolor="#f6d5bd"] ;
799 -> 800 ;
801 [label="mse = 0.0\nsamples = 2\nvalue = 0.083", fillcolor="#f6d5bd"] ;
800 -> 801 ;
802 [label="mse = 0.0\nsamples = 2\nvalue = 0.084", fillcolor="#f6d5bc"] ;
800 -> 802 ;
803 [label="X[0] <= 0.294\nmse = 0.0\nsamples = 3\nvalue = 0.086", fillcolor="#f6d4bb"] ;
799 -> 803 ;
804 [label="mse = 0.0\nsamples = 2\nvalue = 0.086", fillcolor="#f6d4bb"] ;
803 -> 804 ;
805 [label="mse = 0.0\nsamples = 1\nvalue = 0.086", fillcolor="#f6d4bb"] ;
803 -> 805 ;
806 [label="X[0] <= 0.299\nmse = 0.0\nsamples = 7\nvalue = 0.089", fillcolor="#f6d2b9"] ;
798 -> 806 ;
807 [label="X[0] <= 0.296\nmse = 0.0\nsamples = 4\nvalue = 0.088", fillcolor="#f6d3ba"] ;
806 -> 807 ;
808 [label="mse = 0.0\nsamples = 2\nvalue = 0.087", fillcolor="#f6d3ba"] ;
807 -> 808 ;
809 [label="mse = 0.0\nsamples = 2\nvalue = 0.089", fillcolor="#f6d2b9"] ;
807 -> 809 ;
810 [label="X[0] <= 0.301\nmse = 0.0\nsamples = 3\nvalue = 0.09", fillcolor="#f6d2b8"] ;
806 -> 810 ;
811 [label="mse = 0.0\nsamples = 2\nvalue = 0.09", fillcolor="#f6d2b8"] ;
810 -> 811 ;
812 [label="mse = 0.0\nsamples = 1\nvalue = 0.091", fillcolor="#f6d1b7"] ;
810 -> 812 ;
813 [label="X[0] <= 0.329\nmse = 0.0\nsamples = 52\nvalue = 0.107", fillcolor="#f4c9aa"] ;
749 -> 813 ;
814 [label="X[0] <= 0.316\nmse = 0.0\nsamples = 27\nvalue = 0.099", fillcolor="#f5cdb1"] ;
813 -> 814 ;
815 [label="X[0] <= 0.308\nmse = 0.0\nsamples = 14\nvalue = 0.095", fillcolor="#f5cfb4"] ;
814 -> 815 ;
816 [label="X[0] <= 0.306\nmse = 0.0\nsamples = 7\nvalue = 0.093", fillcolor="#f5d0b5"] ;
815 -> 816 ;
817 [label="X[0] <= 0.303\nmse = 0.0\nsamples = 4\nvalue = 0.092", fillcolor="#f5d1b6"] ;
816 -> 817 ;
818 [label="mse = 0.0\nsamples = 2\nvalue = 0.092", fillcolor="#f6d1b7"] ;
817 -> 818 ;
819 [label="mse = 0.0\nsamples = 2\nvalue = 0.093", fillcolor="#f5d0b6"] ;
817 -> 819 ;
820 [label="X[0] <= 0.308\nmse = 0.0\nsamples = 3\nvalue = 0.094", fillcolor="#f5d0b5"] ;
816 -> 820 ;
821 [label="mse = 0.0\nsamples = 2\nvalue = 0.094", fillcolor="#f5d0b5"] ;
820 -> 821 ;
822 [label="mse = 0.0\nsamples = 1\nvalue = 0.095", fillcolor="#f5cfb4"] ;
820 -> 822 ;
823 [label="X[0] <= 0.312\nmse = 0.0\nsamples = 7\nvalue = 0.097", fillcolor="#f5ceb2"] ;
815 -> 823 ;
824 [label="X[0] <= 0.31\nmse = 0.0\nsamples = 4\nvalue = 0.096", fillcolor="#f5cfb3"] ;
823 -> 824 ;
825 [label="mse = 0.0\nsamples = 2\nvalue = 0.096", fillcolor="#f5cfb3"] ;
824 -> 825 ;
826 [label="mse = 0.0\nsamples = 2\nvalue = 0.097", fillcolor="#f5ceb2"] ;
824 -> 826 ;
827 [label="X[0] <= 0.315\nmse = 0.0\nsamples = 3\nvalue = 0.099", fillcolor="#f5cdb1"] ;
823 -> 827 ;
828 [label="mse = 0.0\nsamples = 2\nvalue = 0.098", fillcolor="#f5ceb1"] ;
827 -> 828 ;
829 [label="mse = -0.0\nsamples = 1\nvalue = 0.099", fillcolor="#f5cdb1"] ;
827 -> 829 ;
830 [label="X[0] <= 0.323\nmse = 0.0\nsamples = 13\nvalue = 0.104", fillcolor="#f4cbad"] ;
814 -> 830 ;
831 [label="X[0] <= 0.319\nmse = 0.0\nsamples = 7\nvalue = 0.102", fillcolor="#f4ccaf"] ;
830 -> 831 ;
832 [label="X[0] <= 0.317\nmse = 0.0\nsamples = 4\nvalue = 0.101", fillcolor="#f5ccaf"] ;
831 -> 832 ;
833 [label="X[0] <= 0.317\nmse = 0.0\nsamples = 2\nvalue = 0.1", fillcolor="#f5cdb0"] ;
832 -> 833 ;
834 [label="mse = 0.0\nsamples = 1\nvalue = 0.1", fillcolor="#f5cdb0"] ;
833 -> 834 ;
835 [label="mse = -0.0\nsamples = 1\nvalue = 0.1", fillcolor="#f5ccb0"] ;
833 -> 835 ;
836 [label="X[0] <= 0.318\nmse = 0.0\nsamples = 2\nvalue = 0.101", fillcolor="#f4ccaf"] ;
832 -> 836 ;
837 [label="mse = 0.0\nsamples = 1\nvalue = 0.101", fillcolor="#f5ccaf"] ;
836 -> 837 ;
838 [label="mse = 0.0\nsamples = 1\nvalue = 0.102", fillcolor="#f4ccaf"] ;
836 -> 838 ;
839 [label="X[0] <= 0.322\nmse = 0.0\nsamples = 3\nvalue = 0.103", fillcolor="#f4cbae"] ;
831 -> 839 ;
840 [label="X[0] <= 0.321\nmse = 0.0\nsamples = 2\nvalue = 0.103", fillcolor="#f4cbae"] ;
839 -> 840 ;
841 [label="mse = 0.0\nsamples = 1\nvalue = 0.102", fillcolor="#f4cbae"] ;
840 -> 841 ;
842 [label="mse = 0.0\nsamples = 1\nvalue = 0.103", fillcolor="#f4cbae"] ;
840 -> 842 ;
843 [label="mse = -0.0\nsamples = 1\nvalue = 0.104", fillcolor="#f4cbad"] ;
839 -> 843 ;
844 [label="X[0] <= 0.325\nmse = 0.0\nsamples = 6\nvalue = 0.106", fillcolor="#f4caab"] ;
830 -> 844 ;
845 [label="X[0] <= 0.324\nmse = 0.0\nsamples = 3\nvalue = 0.105", fillcolor="#f4caac"] ;
844 -> 845 ;
846 [label="X[0] <= 0.324\nmse = 0.0\nsamples = 2\nvalue = 0.105", fillcolor="#f4caac"] ;
845 -> 846 ;
847 [label="mse = 0.0\nsamples = 1\nvalue = 0.104", fillcolor="#f4cbad"] ;
846 -> 847 ;
848 [label="mse = -0.0\nsamples = 1\nvalue = 0.105", fillcolor="#f4caac"] ;
846 -> 848 ;
849 [label="mse = 0.0\nsamples = 1\nvalue = 0.106", fillcolor="#f4caab"] ;
845 -> 849 ;
850 [label="X[0] <= 0.328\nmse = 0.0\nsamples = 3\nvalue = 0.107", fillcolor="#f4c9aa"] ;
844 -> 850 ;
851 [label="X[0] <= 0.326\nmse = 0.0\nsamples = 2\nvalue = 0.107", fillcolor="#f4c9ab"] ;
850 -> 851 ;
852 [label="mse = 0.0\nsamples = 1\nvalue = 0.106", fillcolor="#f4caab"] ;
851 -> 852 ;
853 [label="mse = -0.0\nsamples = 1\nvalue = 0.107", fillcolor="#f4c9aa"] ;
851 -> 853 ;
854 [label="mse = 0.0\nsamples = 1\nvalue = 0.108", fillcolor="#f4c9aa"] ;
850 -> 854 ;
855 [label="X[0] <= 0.341\nmse = 0.0\nsamples = 25\nvalue = 0.116", fillcolor="#f3c4a3"] ;
813 -> 855 ;
856 [label="X[0] <= 0.336\nmse = 0.0\nsamples = 13\nvalue = 0.112", fillcolor="#f3c7a6"] ;
855 -> 856 ;
857 [label="X[0] <= 0.332\nmse = 0.0\nsamples = 7\nvalue = 0.11", fillcolor="#f4c8a8"] ;
856 -> 857 ;
858 [label="X[0] <= 0.331\nmse = 0.0\nsamples = 4\nvalue = 0.109", fillcolor="#f4c8a9"] ;
857 -> 858 ;
859 [label="X[0] <= 0.33\nmse = 0.0\nsamples = 2\nvalue = 0.109", fillcolor="#f4c8a9"] ;
858 -> 859 ;
860 [label="mse = 0.0\nsamples = 1\nvalue = 0.108", fillcolor="#f4c9a9"] ;
859 -> 860 ;
861 [label="mse = -0.0\nsamples = 1\nvalue = 0.109", fillcolor="#f4c8a9"] ;
859 -> 861 ;
862 [label="X[0] <= 0.331\nmse = 0.0\nsamples = 2\nvalue = 0.11", fillcolor="#f4c8a8"] ;
858 -> 862 ;
863 [label="mse = 0.0\nsamples = 1\nvalue = 0.11", fillcolor="#f4c8a8"] ;
862 -> 863 ;
864 [label="mse = -0.0\nsamples = 1\nvalue = 0.11", fillcolor="#f4c8a8"] ;
862 -> 864 ;
865 [label="X[0] <= 0.334\nmse = 0.0\nsamples = 3\nvalue = 0.112", fillcolor="#f3c7a7"] ;
857 -> 865 ;
866 [label="X[0] <= 0.333\nmse = 0.0\nsamples = 2\nvalue = 0.111", fillcolor="#f3c7a7"] ;
865 -> 866 ;
867 [label="mse = 0.0\nsamples = 1\nvalue = 0.111", fillcolor="#f3c7a7"] ;
866 -> 867 ;
868 [label="mse = 0.0\nsamples = 1\nvalue = 0.112", fillcolor="#f3c7a7"] ;
866 -> 868 ;
869 [label="mse = -0.0\nsamples = 1\nvalue = 0.112", fillcolor="#f3c7a6"] ;
865 -> 869 ;
870 [label="X[0] <= 0.338\nmse = 0.0\nsamples = 6\nvalue = 0.115", fillcolor="#f3c5a4"] ;
856 -> 870 ;
871 [label="X[0] <= 0.338\nmse = 0.0\nsamples = 3\nvalue = 0.114", fillcolor="#f3c6a5"] ;
870 -> 871 ;
872 [label="X[0] <= 0.337\nmse = 0.0\nsamples = 2\nvalue = 0.113", fillcolor="#f3c6a5"] ;
871 -> 872 ;
873 [label="mse = 0.0\nsamples = 1\nvalue = 0.113", fillcolor="#f3c6a6"] ;
872 -> 873 ;
874 [label="mse = -0.0\nsamples = 1\nvalue = 0.114", fillcolor="#f3c6a5"] ;
872 -> 874 ;
875 [label="mse = -0.0\nsamples = 1\nvalue = 0.114", fillcolor="#f3c6a5"] ;
871 -> 875 ;
876 [label="X[0] <= 0.34\nmse = 0.0\nsamples = 3\nvalue = 0.116", fillcolor="#f3c5a4"] ;
870 -> 876 ;
877 [label="X[0] <= 0.339\nmse = 0.0\nsamples = 2\nvalue = 0.115", fillcolor="#f3c5a4"] ;
876 -> 877 ;
878 [label="mse = 0.0\nsamples = 1\nvalue = 0.115", fillcolor="#f3c5a4"] ;
877 -> 878 ;
879 [label="mse = -0.0\nsamples = 1\nvalue = 0.116", fillcolor="#f3c5a4"] ;
877 -> 879 ;
880 [label="mse = -0.0\nsamples = 1\nvalue = 0.116", fillcolor="#f3c4a3"] ;
876 -> 880 ;
881 [label="X[0] <= 0.347\nmse = 0.0\nsamples = 12\nvalue = 0.121", fillcolor="#f2c29f"] ;
855 -> 881 ;
882 [label="X[0] <= 0.345\nmse = 0.0\nsamples = 6\nvalue = 0.119", fillcolor="#f3c3a1"] ;
881 -> 882 ;
883 [label="X[0] <= 0.344\nmse = 0.0\nsamples = 3\nvalue = 0.118", fillcolor="#f3c4a2"] ;
882 -> 883 ;
884 [label="X[0] <= 0.343\nmse = 0.0\nsamples = 2\nvalue = 0.117", fillcolor="#f3c4a2"] ;
883 -> 884 ;
885 [label="mse = 0.0\nsamples = 1\nvalue = 0.117", fillcolor="#f3c4a2"] ;
884 -> 885 ;
886 [label="mse = 0.0\nsamples = 1\nvalue = 0.118", fillcolor="#f3c4a2"] ;
884 -> 886 ;
887 [label="mse = 0.0\nsamples = 1\nvalue = 0.118", fillcolor="#f3c3a1"] ;
883 -> 887 ;
888 [label="X[0] <= 0.346\nmse = 0.0\nsamples = 3\nvalue = 0.12", fillcolor="#f3c3a0"] ;
882 -> 888 ;
889 [label="X[0] <= 0.345\nmse = 0.0\nsamples = 2\nvalue = 0.119", fillcolor="#f3c3a1"] ;
888 -> 889 ;
890 [label="mse = 0.0\nsamples = 1\nvalue = 0.119", fillcolor="#f3c3a1"] ;
889 -> 890 ;
891 [label="mse = -0.0\nsamples = 1\nvalue = 0.12", fillcolor="#f3c3a0"] ;
889 -> 891 ;
892 [label="mse = 0.0\nsamples = 1\nvalue = 0.12", fillcolor="#f2c2a0"] ;
888 -> 892 ;
893 [label="X[0] <= 0.351\nmse = 0.0\nsamples = 6\nvalue = 0.123", fillcolor="#f2c19e"] ;
881 -> 893 ;
894 [label="X[0] <= 0.35\nmse = 0.0\nsamples = 3\nvalue = 0.122", fillcolor="#f2c29f"] ;
893 -> 894 ;
895 [label="X[0] <= 0.348\nmse = 0.0\nsamples = 2\nvalue = 0.121", fillcolor="#f2c29f"] ;
894 -> 895 ;
896 [label="mse = 0.0\nsamples = 1\nvalue = 0.121", fillcolor="#f2c29f"] ;
895 -> 896 ;
897 [label="mse = 0.0\nsamples = 1\nvalue = 0.122", fillcolor="#f2c29f"] ;
895 -> 897 ;
898 [label="mse = -0.0\nsamples = 1\nvalue = 0.123", fillcolor="#f2c19e"] ;
894 -> 898 ;
899 [label="X[0] <= 0.352\nmse = 0.0\nsamples = 3\nvalue = 0.124", fillcolor="#f2c19d"] ;
893 -> 899 ;
900 [label="X[0] <= 0.352\nmse = 0.0\nsamples = 2\nvalue = 0.124", fillcolor="#f2c19d"] ;
899 -> 900 ;
901 [label="mse = 0.0\nsamples = 1\nvalue = 0.123", fillcolor="#f2c19e"] ;
900 -> 901 ;
902 [label="mse = -0.0\nsamples = 1\nvalue = 0.124", fillcolor="#f2c19d"] ;
900 -> 902 ;
903 [label="mse = 0.0\nsamples = 1\nvalue = 0.125", fillcolor="#f2c09c"] ;
899 -> 903 ;
904 [label="X[0] <= 0.432\nmse = 0.001\nsamples = 147\nvalue = 0.184", fillcolor="#eca26d"] ;
0 -> 904 [labeldistance=2.5, labelangle=-45, headlabel="False"] ;
905 [label="X[0] <= 0.394\nmse = 0.0\nsamples = 78\nvalue = 0.155", fillcolor="#efb185"] ;
904 -> 905 ;
906 [label="X[0] <= 0.374\nmse = 0.0\nsamples = 40\nvalue = 0.14", fillcolor="#f0b991"] ;
905 -> 906 ;
907 [label="X[0] <= 0.363\nmse = 0.0\nsamples = 20\nvalue = 0.132", fillcolor="#f1bc96"] ;
906 -> 907 ;
908 [label="X[0] <= 0.359\nmse = 0.0\nsamples = 10\nvalue = 0.129", fillcolor="#f2be99"] ;
907 -> 908 ;
909 [label="X[0] <= 0.356\nmse = 0.0\nsamples = 5\nvalue = 0.127", fillcolor="#f2bf9b"] ;
908 -> 909 ;
910 [label="X[0] <= 0.355\nmse = 0.0\nsamples = 3\nvalue = 0.126", fillcolor="#f2c09b"] ;
909 -> 910 ;
911 [label="X[0] <= 0.354\nmse = 0.0\nsamples = 2\nvalue = 0.126", fillcolor="#f2c09c"] ;
910 -> 911 ;
912 [label="mse = 0.0\nsamples = 1\nvalue = 0.125", fillcolor="#f2c09c"] ;
911 -> 912 ;
913 [label="mse = 0.0\nsamples = 1\nvalue = 0.126", fillcolor="#f2c09b"] ;
911 -> 913 ;
914 [label="mse = 0.0\nsamples = 1\nvalue = 0.127", fillcolor="#f2bf9b"] ;
910 -> 914 ;
915 [label="X[0] <= 0.358\nmse = 0.0\nsamples = 2\nvalue = 0.128", fillcolor="#f2bf9a"] ;
909 -> 915 ;
916 [label="mse = 0.0\nsamples = 1\nvalue = 0.127", fillcolor="#f2bf9a"] ;
915 -> 916 ;
917 [label="mse = 0.0\nsamples = 1\nvalue = 0.128", fillcolor="#f2be9a"] ;
915 -> 917 ;
918 [label="X[0] <= 0.361\nmse = 0.0\nsamples = 5\nvalue = 0.13", fillcolor="#f1bd98"] ;
908 -> 918 ;
919 [label="X[0] <= 0.361\nmse = 0.0\nsamples = 3\nvalue = 0.13", fillcolor="#f2be98"] ;
918 -> 919 ;
920 [label="X[0] <= 0.36\nmse = 0.0\nsamples = 2\nvalue = 0.129", fillcolor="#f2be99"] ;
919 -> 920 ;
921 [label="mse = 0.0\nsamples = 1\nvalue = 0.129", fillcolor="#f2be99"] ;
920 -> 921 ;
922 [label="mse = 0.0\nsamples = 1\nvalue = 0.13", fillcolor="#f2be98"] ;
920 -> 922 ;
923 [label="mse = -0.0\nsamples = 1\nvalue = 0.13", fillcolor="#f1bd98"] ;
919 -> 923 ;
924 [label="X[0] <= 0.362\nmse = 0.0\nsamples = 2\nvalue = 0.131", fillcolor="#f1bd97"] ;
918 -> 924 ;
925 [label="mse = 0.0\nsamples = 1\nvalue = 0.131", fillcolor="#f1bd97"] ;
924 -> 925 ;
926 [label="mse = 0.0\nsamples = 1\nvalue = 0.132", fillcolor="#f1bd97"] ;
924 -> 926 ;
927 [label="X[0] <= 0.368\nmse = 0.0\nsamples = 10\nvalue = 0.136", fillcolor="#f1bb94"] ;
907 -> 927 ;
928 [label="X[0] <= 0.367\nmse = 0.0\nsamples = 5\nvalue = 0.134", fillcolor="#f1bc95"] ;
927 -> 928 ;
929 [label="X[0] <= 0.366\nmse = 0.0\nsamples = 3\nvalue = 0.133", fillcolor="#f1bc96"] ;
928 -> 929 ;
930 [label="X[0] <= 0.365\nmse = 0.0\nsamples = 2\nvalue = 0.133", fillcolor="#f1bc96"] ;
929 -> 930 ;
931 [label="mse = 0.0\nsamples = 1\nvalue = 0.132", fillcolor="#f1bc96"] ;
930 -> 931 ;
932 [label="mse = 0.0\nsamples = 1\nvalue = 0.133", fillcolor="#f1bc96"] ;
930 -> 932 ;
933 [label="mse = 0.0\nsamples = 1\nvalue = 0.134", fillcolor="#f1bc95"] ;
929 -> 933 ;
934 [label="X[0] <= 0.368\nmse = 0.0\nsamples = 2\nvalue = 0.135", fillcolor="#f1bb94"] ;
928 -> 934 ;
935 [label="mse = 0.0\nsamples = 1\nvalue = 0.135", fillcolor="#f1bb94"] ;
934 -> 935 ;
936 [label="mse = -0.0\nsamples = 1\nvalue = 0.135", fillcolor="#f1bb94"] ;
934 -> 936 ;
937 [label="X[0] <= 0.372\nmse = 0.0\nsamples = 5\nvalue = 0.138", fillcolor="#f1ba92"] ;
927 -> 937 ;
938 [label="X[0] <= 0.37\nmse = 0.0\nsamples = 3\nvalue = 0.137", fillcolor="#f1ba93"] ;
937 -> 938 ;
939 [label="X[0] <= 0.369\nmse = 0.0\nsamples = 2\nvalue = 0.137", fillcolor="#f1ba93"] ;
938 -> 939 ;
940 [label="mse = 0.0\nsamples = 1\nvalue = 0.136", fillcolor="#f1ba93"] ;
939 -> 940 ;
941 [label="mse = 0.0\nsamples = 1\nvalue = 0.137", fillcolor="#f1ba93"] ;
939 -> 941 ;
942 [label="mse = 0.0\nsamples = 1\nvalue = 0.138", fillcolor="#f1ba92"] ;
938 -> 942 ;
943 [label="X[0] <= 0.373\nmse = 0.0\nsamples = 2\nvalue = 0.139", fillcolor="#f1b991"] ;
937 -> 943 ;
944 [label="mse = 0.0\nsamples = 1\nvalue = 0.138", fillcolor="#f1b992"] ;
943 -> 944 ;
945 [label="mse = 0.0\nsamples = 1\nvalue = 0.139", fillcolor="#f1b991"] ;
943 -> 945 ;
946 [label="X[0] <= 0.383\nmse = 0.0\nsamples = 20\nvalue = 0.147", fillcolor="#f0b58b"] ;
906 -> 946 ;
947 [label="X[0] <= 0.378\nmse = 0.0\nsamples = 10\nvalue = 0.143", fillcolor="#f0b78e"] ;
946 -> 947 ;
948 [label="X[0] <= 0.376\nmse = 0.0\nsamples = 5\nvalue = 0.141", fillcolor="#f0b88f"] ;
947 -> 948 ;
949 [label="X[0] <= 0.375\nmse = 0.0\nsamples = 3\nvalue = 0.141", fillcolor="#f0b890"] ;
948 -> 949 ;
950 [label="X[0] <= 0.375\nmse = 0.0\nsamples = 2\nvalue = 0.14", fillcolor="#f0b890"] ;
949 -> 950 ;
951 [label="mse = 0.0\nsamples = 1\nvalue = 0.14", fillcolor="#f0b990"] ;
950 -> 951 ;
952 [label="mse = 0.0\nsamples = 1\nvalue = 0.141", fillcolor="#f0b890"] ;
950 -> 952 ;
953 [label="mse = -0.0\nsamples = 1\nvalue = 0.141", fillcolor="#f0b88f"] ;
949 -> 953 ;
954 [label="X[0] <= 0.377\nmse = 0.0\nsamples = 2\nvalue = 0.143", fillcolor="#f0b78e"] ;
948 -> 954 ;
955 [label="mse = 0.0\nsamples = 1\nvalue = 0.142", fillcolor="#f0b78f"] ;
954 -> 955 ;
956 [label="mse = 0.0\nsamples = 1\nvalue = 0.143", fillcolor="#f0b78e"] ;
954 -> 956 ;
957 [label="X[0] <= 0.382\nmse = 0.0\nsamples = 5\nvalue = 0.145", fillcolor="#f0b68c"] ;
947 -> 957 ;
958 [label="X[0] <= 0.381\nmse = 0.0\nsamples = 3\nvalue = 0.144", fillcolor="#f0b68d"] ;
957 -> 958 ;
959 [label="X[0] <= 0.38\nmse = 0.0\nsamples = 2\nvalue = 0.144", fillcolor="#f0b68d"] ;
958 -> 959 ;
960 [label="mse = 0.0\nsamples = 1\nvalue = 0.144", fillcolor="#f0b78d"] ;
959 -> 960 ;
961 [label="mse = -0.0\nsamples = 1\nvalue = 0.144", fillcolor="#f0b68d"] ;
959 -> 961 ;
962 [label="mse = -0.0\nsamples = 1\nvalue = 0.145", fillcolor="#f0b68c"] ;
958 -> 962 ;
963 [label="X[0] <= 0.382\nmse = 0.0\nsamples = 2\nvalue = 0.146", fillcolor="#f0b58b"] ;
957 -> 963 ;
964 [label="mse = 0.0\nsamples = 1\nvalue = 0.146", fillcolor="#f0b68c"] ;
963 -> 964 ;
965 [label="mse = -0.0\nsamples = 1\nvalue = 0.147", fillcolor="#f0b58b"] ;
963 -> 965 ;
966 [label="X[0] <= 0.389\nmse = 0.0\nsamples = 10\nvalue = 0.151", fillcolor="#efb388"] ;
946 -> 966 ;
967 [label="X[0] <= 0.387\nmse = 0.0\nsamples = 5\nvalue = 0.149", fillcolor="#f0b489"] ;
966 -> 967 ;
968 [label="X[0] <= 0.385\nmse = 0.0\nsamples = 3\nvalue = 0.148", fillcolor="#f0b48a"] ;
967 -> 968 ;
969 [label="X[0] <= 0.384\nmse = 0.0\nsamples = 2\nvalue = 0.148", fillcolor="#f0b58a"] ;
968 -> 969 ;
970 [label="mse = 0.0\nsamples = 1\nvalue = 0.147", fillcolor="#f0b58a"] ;
969 -> 970 ;
971 [label="mse = 0.0\nsamples = 1\nvalue = 0.148", fillcolor="#f0b48a"] ;
969 -> 971 ;
972 [label="mse = 0.0\nsamples = 1\nvalue = 0.149", fillcolor="#f0b489"] ;
968 -> 972 ;
973 [label="X[0] <= 0.388\nmse = 0.0\nsamples = 2\nvalue = 0.15", fillcolor="#efb388"] ;
967 -> 973 ;
974 [label="mse = 0.0\nsamples = 1\nvalue = 0.15", fillcolor="#efb488"] ;
973 -> 974 ;
975 [label="mse = 0.0\nsamples = 1\nvalue = 0.151", fillcolor="#efb388"] ;
973 -> 975 ;
976 [label="X[0] <= 0.391\nmse = 0.0\nsamples = 5\nvalue = 0.153", fillcolor="#efb286"] ;
966 -> 976 ;
977 [label="X[0] <= 0.39\nmse = 0.0\nsamples = 3\nvalue = 0.152", fillcolor="#efb287"] ;
976 -> 977 ;
978 [label="X[0] <= 0.389\nmse = 0.0\nsamples = 2\nvalue = 0.152", fillcolor="#efb387"] ;
977 -> 978 ;
979 [label="mse = 0.0\nsamples = 1\nvalue = 0.151", fillcolor="#efb387"] ;
978 -> 979 ;
980 [label="mse = -0.0\nsamples = 1\nvalue = 0.152", fillcolor="#efb287"] ;
978 -> 980 ;
981 [label="mse = 0.0\nsamples = 1\nvalue = 0.153", fillcolor="#efb286"] ;
977 -> 981 ;
982 [label="X[0] <= 0.392\nmse = 0.0\nsamples = 2\nvalue = 0.154", fillcolor="#efb185"] ;
976 -> 982 ;
983 [label="mse = 0.0\nsamples = 1\nvalue = 0.154", fillcolor="#efb285"] ;
982 -> 983 ;
984 [label="mse = 0.0\nsamples = 1\nvalue = 0.154", fillcolor="#efb185"] ;
982 -> 984 ;
985 [label="X[0] <= 0.412\nmse = 0.0\nsamples = 38\nvalue = 0.17", fillcolor="#eda978"] ;
905 -> 985 ;
986 [label="X[0] <= 0.404\nmse = 0.0\nsamples = 19\nvalue = 0.162", fillcolor="#eead7e"] ;
985 -> 986 ;
987 [label="X[0] <= 0.398\nmse = 0.0\nsamples = 10\nvalue = 0.159", fillcolor="#eeaf81"] ;
986 -> 987 ;
988 [label="X[0] <= 0.397\nmse = 0.0\nsamples = 5\nvalue = 0.157", fillcolor="#efb083"] ;
987 -> 988 ;
989 [label="X[0] <= 0.396\nmse = 0.0\nsamples = 3\nvalue = 0.156", fillcolor="#efb084"] ;
988 -> 989 ;
990 [label="X[0] <= 0.395\nmse = 0.0\nsamples = 2\nvalue = 0.156", fillcolor="#efb184"] ;
989 -> 990 ;
991 [label="mse = 0.0\nsamples = 1\nvalue = 0.155", fillcolor="#efb184"] ;
990 -> 991 ;
992 [label="mse = 0.0\nsamples = 1\nvalue = 0.156", fillcolor="#efb084"] ;
990 -> 992 ;
993 [label="mse = -0.0\nsamples = 1\nvalue = 0.157", fillcolor="#efb083"] ;
989 -> 993 ;
994 [label="X[0] <= 0.398\nmse = 0.0\nsamples = 2\nvalue = 0.158", fillcolor="#efaf82"] ;
988 -> 994 ;
995 [label="mse = 0.0\nsamples = 1\nvalue = 0.158", fillcolor="#efb082"] ;
994 -> 995 ;
996 [label="mse = 0.0\nsamples = 1\nvalue = 0.158", fillcolor="#efaf82"] ;
994 -> 996 ;
997 [label="X[0] <= 0.402\nmse = 0.0\nsamples = 5\nvalue = 0.161", fillcolor="#eeae80"] ;
987 -> 997 ;
998 [label="X[0] <= 0.4\nmse = 0.0\nsamples = 3\nvalue = 0.16", fillcolor="#eeae80"] ;
997 -> 998 ;
999 [label="X[0] <= 0.399\nmse = 0.0\nsamples = 2\nvalue = 0.16", fillcolor="#eeaf81"] ;
998 -> 999 ;
1000 [label="mse = 0.0\nsamples = 1\nvalue = 0.159", fillcolor="#eeaf81"] ;
999 -> 1000 ;
1001 [label="mse = 0.0\nsamples = 1\nvalue = 0.16", fillcolor="#eeae80"] ;
999 -> 1001 ;
1002 [label="mse = 0.0\nsamples = 1\nvalue = 0.161", fillcolor="#eeae80"] ;
998 -> 1002 ;
1003 [label="X[0] <= 0.403\nmse = 0.0\nsamples = 2\nvalue = 0.162", fillcolor="#eead7f"] ;
997 -> 1003 ;
1004 [label="mse = 0.0\nsamples = 1\nvalue = 0.162", fillcolor="#eeae7f"] ;
1003 -> 1004 ;
1005 [label="mse = 0.0\nsamples = 1\nvalue = 0.162", fillcolor="#eead7e"] ;
1003 -> 1005 ;
1006 [label="X[0] <= 0.409\nmse = 0.0\nsamples = 9\nvalue = 0.166", fillcolor="#eeab7b"] ;
986 -> 1006 ;
1007 [label="X[0] <= 0.406\nmse = 0.0\nsamples = 5\nvalue = 0.165", fillcolor="#eeac7d"] ;
1006 -> 1007 ;
1008 [label="X[0] <= 0.405\nmse = 0.0\nsamples = 3\nvalue = 0.164", fillcolor="#eeac7d"] ;
1007 -> 1008 ;
1009 [label="X[0] <= 0.405\nmse = 0.0\nsamples = 2\nvalue = 0.164", fillcolor="#eead7d"] ;
1008 -> 1009 ;
1010 [label="mse = 0.0\nsamples = 1\nvalue = 0.163", fillcolor="#eead7e"] ;
1009 -> 1010 ;
1011 [label="mse = 0.0\nsamples = 1\nvalue = 0.164", fillcolor="#eeac7d"] ;
1009 -> 1011 ;
1012 [label="mse = 0.0\nsamples = 1\nvalue = 0.165", fillcolor="#eeac7d"] ;
1008 -> 1012 ;
1013 [label="X[0] <= 0.407\nmse = 0.0\nsamples = 2\nvalue = 0.166", fillcolor="#eeab7c"] ;
1007 -> 1013 ;
1014 [label="mse = 0.0\nsamples = 1\nvalue = 0.166", fillcolor="#eeac7c"] ;
1013 -> 1014 ;
1015 [label="mse = -0.0\nsamples = 1\nvalue = 0.166", fillcolor="#eeab7b"] ;
1013 -> 1015 ;
1016 [label="X[0] <= 0.411\nmse = 0.0\nsamples = 4\nvalue = 0.169", fillcolor="#edaa7a"] ;
1006 -> 1016 ;
1017 [label="X[0] <= 0.41\nmse = 0.0\nsamples = 2\nvalue = 0.168", fillcolor="#eeab7a"] ;
1016 -> 1017 ;
1018 [label="mse = 0.0\nsamples = 1\nvalue = 0.167", fillcolor="#eeab7b"] ;
1017 -> 1018 ;
1019 [label="mse = 0.0\nsamples = 1\nvalue = 0.168", fillcolor="#eeaa7a"] ;
1017 -> 1019 ;
1020 [label="X[0] <= 0.412\nmse = 0.0\nsamples = 2\nvalue = 0.169", fillcolor="#edaa79"] ;
1016 -> 1020 ;
1021 [label="mse = 0.0\nsamples = 1\nvalue = 0.169", fillcolor="#edaa79"] ;
1020 -> 1021 ;
1022 [label="mse = 0.0\nsamples = 1\nvalue = 0.17", fillcolor="#edaa79"] ;
1020 -> 1022 ;
1023 [label="X[0] <= 0.422\nmse = 0.0\nsamples = 19\nvalue = 0.178", fillcolor="#eca572"] ;
985 -> 1023 ;
1024 [label="X[0] <= 0.418\nmse = 0.0\nsamples = 10\nvalue = 0.174", fillcolor="#eda775"] ;
1023 -> 1024 ;
1025 [label="X[0] <= 0.416\nmse = 0.0\nsamples = 5\nvalue = 0.172", fillcolor="#eda877"] ;
1024 -> 1025 ;
1026 [label="X[0] <= 0.414\nmse = 0.0\nsamples = 3\nvalue = 0.171", fillcolor="#eda977"] ;
1025 -> 1026 ;
1027 [label="X[0] <= 0.413\nmse = 0.0\nsamples = 2\nvalue = 0.171", fillcolor="#eda978"] ;
1026 -> 1027 ;
1028 [label="mse = 0.0\nsamples = 1\nvalue = 0.171", fillcolor="#eda978"] ;
1027 -> 1028 ;
1029 [label="mse = 0.0\nsamples = 1\nvalue = 0.171", fillcolor="#eda977"] ;
1027 -> 1029 ;
1030 [label="mse = 0.0\nsamples = 1\nvalue = 0.172", fillcolor="#eda877"] ;
1026 -> 1030 ;
1031 [label="X[0] <= 0.417\nmse = 0.0\nsamples = 2\nvalue = 0.173", fillcolor="#eda876"] ;
1025 -> 1031 ;
1032 [label="mse = 0.0\nsamples = 1\nvalue = 0.173", fillcolor="#eda876"] ;
1031 -> 1032 ;
1033 [label="mse = -0.0\nsamples = 1\nvalue = 0.174", fillcolor="#eda775"] ;
1031 -> 1033 ;
1034 [label="X[0] <= 0.42\nmse = 0.0\nsamples = 5\nvalue = 0.176", fillcolor="#eda673"] ;
1024 -> 1034 ;
1035 [label="X[0] <= 0.419\nmse = 0.0\nsamples = 3\nvalue = 0.176", fillcolor="#eda774"] ;
1034 -> 1035 ;
1036 [label="X[0] <= 0.419\nmse = 0.0\nsamples = 2\nvalue = 0.175", fillcolor="#eda774"] ;
1035 -> 1036 ;
1037 [label="mse = 0.0\nsamples = 1\nvalue = 0.175", fillcolor="#eda775"] ;
1036 -> 1037 ;
1038 [label="mse = -0.0\nsamples = 1\nvalue = 0.176", fillcolor="#eda774"] ;
1036 -> 1038 ;
1039 [label="mse = 0.0\nsamples = 1\nvalue = 0.176", fillcolor="#eda673"] ;
1035 -> 1039 ;
1040 [label="X[0] <= 0.421\nmse = 0.0\nsamples = 2\nvalue = 0.178", fillcolor="#eda672"] ;
1034 -> 1040 ;
1041 [label="mse = 0.0\nsamples = 1\nvalue = 0.177", fillcolor="#eda673"] ;
1040 -> 1041 ;
1042 [label="mse = 0.0\nsamples = 1\nvalue = 0.178", fillcolor="#eca572"] ;
1040 -> 1042 ;
