digraph Tree {
node [shape=box, style="filled, rounded", color="black", fontname=helvetica] ;
edge [fontname=helvetica] ;
0 [label="X[0] <= 0.353\nmse = 0.006\nsamples = 1001\nvalue = 0.084", fillcolor="#f8dfcd"] ;
1 [label="X[0] <= -0.325\nmse = 0.004\nsamples = 854\nvalue = 0.066", fillcolor="#fbece1"] ;
0 -> 1 [labeldistance=2.5, labelangle=45, headlabel="True"] ;
2 [label="mse = 0.002\nsamples = 175\nvalue = 0.173", fillcolor="#eba06a"] ;
1 -> 2 ;
3 [label="mse = 0.001\nsamples = 679\nvalue = 0.039", fillcolor="#ffffff"] ;
1 -> 3 ;
4 [label="X[0] <= 0.432\nmse = 0.001\nsamples = 147\nvalue = 0.184", fillcolor="#ea995e"] ;
0 -> 4 [labeldistance=2.5, labelangle=-45, headlabel="False"] ;
5 [label="mse = 0.0\nsamples = 78\nvalue = 0.155", fillcolor="#eead7f"] ;
4 -> 5 ;
6 [label="mse = 0.0\nsamples = 69\nvalue = 0.218", fillcolor="#e58139"] ;
4 -> 6 ;
}